{"learner":{"attributes":{"scikit_learn":"{\"_estimator_type\": \"regressor\"}"},"feature_names":[],"feature_types":[],"gradient_booster":{"model":{"gbtree_model_param":{"num_parallel_tree":"1","num_trees":"50"},"iteration_indptr":[0,1,2,3,4,5,6,7,8,9,10,11,12,13,14,15,16,17,18,19,20,21,22,23,24,25,26,27,28,29,30,31,32,33,34,35,36,37,38,39,40,41,42,43,44,45,46,47,48,49,50],"tree_info":[0,0,0,0,0,0,0,0,0,0,0,0,0,0,0,0,0,0,0,0,0,0,0,0,0,0,0,0,0,0,0,0,0,0,0,0,0,0,0,0,0,0,0,0,0,0,0,0,0,0],"trees":[{"base_weights":[-4.0772457E-7,-1.4368618E0,1.8564025E0,-2.6672645E0,-4.688026E-1,1.1534536E0,2.7117946E0,-3.2382414E0,-1.4943808E0,1.6768439E-1,-1.0434968E0,2.0447426E-2,1.4731678E0,2.3392153E0,3.4960036E0,-1.250954E-1,-4.0357405E-1,-1.9015037E-1,-1.1661886E-2,-1.6131593E-1,3.821897E-2,-1.6082577E-1,-1.2493856E-2,-2.3835336E-1,3.3658132E-2,1.289775E-1,2.0561612E-1,1.3836882E-1,2.521657E-1,2.995281E-1,3.9968523E-1],"categories":[],"categories_nodes":[],"categories_segments":[],"categories_sizes":[],"default_left":[0,0,0,0,0,0,0,0,0,0,0,0,0,0,0,0,0,0,0,0,0,0,0,0,0,0,0,0,0,0,0],"id":0,"left_children":[1,3,5,7,9,11,13,15,17,19,21,23,25,27,29,-1,-1,-1,-1,-1,-1,-1,-1,-1,-1,-1,-1,-1,-1,-1,-1],"loss_changes":[6.407079E3,1.6115032E3,6.2703125E2,3.942954E2,2.778061E2,2.089812E2,1.297312E2,6.288955E2,1.10279144E2,1.3851869E2,2.0678656E2,9.807967E1,4.546051E1,5.2818604E1,2.5646118E1,0E0,0E0,0E0,0E0,0E0,0E0,0E0,0E0,0E0,0E0,0E0,0E0,0E0,0E0,0E0,0E0],"parents":[2147483647,0,0,1,1,2,2,3,3,4,4,5,5,6,6,7,7,8,8,9,9,10,10,11,11,12,12,13,13,14,14],"right_children":[2,4,6,8,10,12,14,16,18,20,22,24,26,28,30,-1,-1,-1,-1,-1,-1,-1,-1,-1,-1,-1,-1,-1,-1,-1,-1],"split_conditions":[1.6213406E1,4.672036E0,1.7399029E1,1.3592368E1,2.007E3,5.810716E0,1.8258162E1,1.994E3,1.25E2,4E0,1.4914124E1,7E0,1E0,6.701138E0,1E0,-1.250954E-1,-4.0357405E-1,-1.9015037E-1,-1.1661886E-2,-1.6131593E-1,3.821897E-2,-1.6082577E-1,-1.2493856E-2,-2.3835336E-1,3.3658132E-2,1.289775E-1,2.0561612E-1,1.3836882E-1,2.521657E-1,2.995281E-1,3.9968523E-1],"split_indices":[0,1,0,0,11,1,0,11,2,5,0,4,8,1,8,0,0,0,0,0,0,0,0,0,0,0,0,0,0,0,0],"split_type":[0,0,0,0,0,0,0,0,0,0,0,0,0,0,0,0,0,0,0,0,0,0,0,0,0,0,0,0,0,0,0],"sum_hessian":[2.4E3,1.353E3,1.047E3,5.95E2,7.58E2,5.76E2,4.71E2,3.99E2,1.96E2,3.6E2,3.98E2,1.27E2,4.49E2,3.22E2,1.49E2,1.15E2,2.84E2,1.51E2,4.5E1,3.8E1,3.22E2,2.46E2,1.52E2,1.4E1,1.13E2,3.44E2,1.05E2,5.3E1,2.69E2,7.8E1,7.1E1],"tree_param":{"num_deleted":"0","num_feature":"13","num_nodes":"31","size_leaf_vector":"1"}},{"base_weights":[7.988224E-5,-1.2939339E0,1.6719259E0,-2.7125847E0,-6.010965E-1,8.716727E-1,2.2940729E0,-3.2415364E0,-1.5036087E0,-5.0672393E-2,-1.2886617E0,-1.1646661E-1,1.1900291E0,1.9967026E0,3.1510649E0,-1.4778328E-1,-3.9743435E-1,-2.0745616E-1,-3.29016E-2,-1.2902972E-1,1.4102113E-2,-2.2884198E-1,-3.856608E-2,-2.6242235E-1,2.0746714E-2,1.00557566E-1,1.7668317E-1,1.0768326E-1,2.1253157E-1,2.5602055E-1,3.495735E-1],"categories":[],"categories_nodes":[],"categories_segments":[],"categories_sizes":[],"default_left":[0,0,0,0,0,0,0,0,0,0,0,0,0,0,0,0,0,0,0,0,0,0,0,0,0,0,0,0,0,0,0],"id":1,"left_children":[1,3,5,7,9,11,13,15,17,19,21,23,25,27,29,-1,-1,-1,-1,-1,-1,-1,-1,-1,-1,-1,-1,-1,-1,-1,-1],"loss_changes":[5.196467E3,1.3292083E3,5.1977344E2,2.7905933E2,3.447049E2,1.4484564E2,1.4381128E2,3.9220288E2,9.11947E1,1.2065938E2,3.647444E2,9.233966E1,3.524817E1,4.97666E1,2.15979E1,0E0,0E0,0E0,0E0,0E0,0E0,0E0,0E0,0E0,0E0,0E0,0E0,0E0,0E0,0E0,0E0],"parents":[2147483647,0,0,1,1,2,2,3,3,4,4,5,5,6,6,7,7,8,8,9,9,10,10,11,11,12,12,13,13,14,14],"right_children":[2,4,6,8,10,12,14,16,18,20,22,24,26,28,30,-1,-1,-1,-1,-1,-1,-1,-1,-1,-1,-1,-1,-1,-1,-1,-1],"split_conditions":[1.6213406E1,2.995682E0,1.7216707E1,1.3592368E1,2.01E3,5.810716E0,1.8258162E1,1.994E3,1.13E2,4E0,1.3396962E1,7E0,1E0,6.167646E0,1.1791591E1,-1.4778328E-1,-3.9743435E-1,-2.0745616E-1,-3.29016E-2,-1.2902972E-1,1.4102113E-2,-2.2884198E-1,-3.856608E-2,-2.6242235E-1,2.0746714E-2,1.00557566E-1,1.7668317E-1,1.0768326E-1,2.1253157E-1,2.5602055E-1,3.495735E-1],"split_indices":[0,1,0,0,11,1,0,11,2,5,0,4,8,1,1,0,0,0,0,0,0,0,0,0,0,0,0,0,0,0,0],"split_type":[0,0,0,0,0,0,0,0,0,0,0,0,0,0,0,0,0,0,0,0,0,0,0,0,0,0,0,0,0,0,0],"sum_hessian":[2.4E3,1.353E3,1.047E3,4.43E2,9.1E2,4.59E2,5.88E2,3.07E2,1.36E2,5.06E2,4.04E2,1.12E2,3.47E2,4.39E2,1.49E2,9.1E1,2.16E2,9.1E1,4.5E1,6.7E1,4.39E2,1.91E2,2.13E2,1.2E1,1E2,2.65E2,8.2E1,5.5E1,3.84E2,5.8E1,9.1E1],"tree_param":{"num_deleted":"0","num_feature":"13","num_nodes":"31","size_leaf_vector":"1"}},{"base_weights":[-1.4248117E-5,-1.1654031E0,1.5056504E0,-2.1815228E0,-3.659661E-1,7.28635E-1,2.028289E0,-3.6835787E0,-1.863925E0,5.223638E-1,-6.5318453E-1,-2.21612E0,8.2741046E-1,1.7687835E0,2.8399954E0,-7.473689E-1,-3.2857415E-1,-2.4353956E-1,-1.202747E-1,-3.0736739E-2,7.167211E-2,-1.0658916E-1,3.5773807E-3,-4.2086506E-1,1.14202894E-1,-3.6226665E-3,1.0434302E-1,1.3400361E-1,1.9891493E-1,2.4005806E-1,3.282687E-1],"categories":[],"categories_nodes":[],"categories_segments":[],"categories_sizes":[],"default_left":[0,0,0,0,0,0,0,0,0,0,0,0,0,0,0,0,0,0,0,0,0,0,0,0,0,0,0,0,0,0,0],"id":2,"left_children":[1,3,5,7,9,11,13,15,17,19,21,23,25,27,29,-1,-1,-1,-1,-1,-1,-1,-1,-1,-1,-1,-1,-1,-1,-1,-1],"loss_changes":[4.214753E3,1.0990881E3,4.2411328E2,2.7745532E2,1.9399603E2,1.2487143E2,1.2683862E2,1.3075183E2,1.8372559E2,3.0215473E1,1.6324811E2,9.848339E1,7.65285E1,4.24021E1,2.129834E1,0E0,0E0,0E0,0E0,0E0,0E0,0E0,0E0,0E0,0E0,0E0,0E0,0E0,0E0,0E0,0E0],"parents":[2147483647,0,0,1,1,2,2,3,3,4,4,5,5,6,6,7,7,8,8,9,9,10,10,11,11,12,12,13,13,14,14],"right_children":[2,4,6,8,10,12,14,16,18,20,22,24,26,28,30,-1,-1,-1,-1,-1,-1,-1,-1,-1,-1,-1,-1,-1,-1,-1,-1],"split_conditions":[1.6213406E1,4.672036E0,1.7073606E1,5.58002E-1,1.993E3,7E0,1.8258162E1,7.3E1,1.02E2,1.1E1,1.4914124E1,4E0,5.159349E0,8.204894E0,1E0,-7.473689E-1,-3.2857415E-1,-2.4353956E-1,-1.202747E-1,-3.0736739E-2,7.167211E-2,-1.0658916E-1,3.5773807E-3,-4.2086506E-1,1.14202894E-1,-3.6226665E-3,1.0434302E-1,1.3400361E-1,1.9891493E-1,2.4005806E-1,3.282687E-1],"split_indices":[0,1,0,1,11,4,0,2,2,4,0,6,1,1,8,0,0,0,0,0,0,0,0,0,0,0,0,0,0,0,0],"split_type":[0,0,0,0,0,0,0,0,0,0,0,0,0,0,0,0,0,0,0,0,0,0,0,0,0,0,0,0,0,0,0],"sum_hessian":[2.4E3,1.353E3,1.047E3,5.95E2,7.58E2,4.22E2,6.25E2,1.02E2,4.93E2,1.85E2,5.73E2,1.3E1,4.09E2,4.76E2,1.49E2,8E0,9.4E1,2.63E2,2.3E2,3.5E1,1.5E2,3.58E2,2.15E2,8E0,5E0,8.2E1,3.27E2,1.64E2,3.12E2,7.8E1,7.1E1],"tree_param":{"num_deleted":"0","num_feature":"13","num_nodes":"31","size_leaf_vector":"1"}},{"base_weights":[-3.487018E-4,-1.0499718E0,1.3557487E0,-1.9657861E0,-3.2945105E-1,8.2893825E-1,1.9968798E0,-7.353071E-1,-2.3142514E0,-5.8418715E-1,5.983061E-1,-5.7066894E-1,9.745395E-1,1.6894301E0,2.6207728E0,-1.645208E-1,-2.5132133E-2,-2.9645404E-1,-1.1508582E-1,2.9768098E-2,-8.5055284E-2,3.867213E-2,2.1926787E-1,1.04569765E-2,-1.4472093E-1,3.731909E-2,1.1229097E-1,6.6367E-2,1.8216623E-1,2.2642183E-1,3.0384123E-1],"categories":[],"categories_nodes":[],"categories_segments":[],"categories_sizes":[],"default_left":[0,0,0,0,0,0,0,0,0,0,0,0,0,0,0,0,0,0,0,0,0,0,0,0,0,0,0,0,0,0,0],"id":3,"left_children":[1,3,5,7,9,11,13,15,17,19,21,23,25,27,29,-1,-1,-1,-1,-1,-1,-1,-1,-1,-1,-1,-1,-1,-1,-1,-1],"loss_changes":[3.4189858E3,8.92807E2,3.5231165E2,2.5385083E2,1.7972647E2,1.1813983E2,8.6109375E1,5.8156944E1,3.4762378E2,1.4025323E2,5.447663E1,3.27044E1,4.624411E1,4.2059692E1,1.6052734E1,0E0,0E0,0E0,0E0,0E0,0E0,0E0,0E0,0E0,0E0,0E0,0E0,0E0,0E0,0E0,0E0],"parents":[2147483647,0,0,1,1,2,2,3,3,4,4,5,5,6,6,7,7,8,8,9,9,10,10,11,11,12,12,13,13,14,14],"right_children":[2,4,6,8,10,12,14,16,18,20,22,24,26,28,30,-1,-1,-1,-1,-1,-1,-1,-1,-1,-1,-1,-1,-1,-1,-1,-1],"split_conditions":[1.6213406E1,4.672036E0,1.7399029E1,1.993E3,1E0,3.659745E0,1E0,1.194377E0,1.3592368E1,1.994E3,1.3963892E1,8E0,1.6477167E1,6.167646E0,1.358903E1,-1.645208E-1,-2.5132133E-2,-2.9645404E-1,-1.1508582E-1,2.9768098E-2,-8.5055284E-2,3.867213E-2,2.1926787E-1,1.04569765E-2,-1.4472093E-1,3.731909E-2,1.1229097E-1,6.6367E-2,1.8216623E-1,2.2642183E-1,3.0384123E-1],"split_indices":[0,1,0,11,8,1,8,1,0,11,1,10,0,1,1,0,0,0,0,0,0,0,0,0,0,0,0,0,0,0,0],"split_type":[0,0,0,0,0,0,0,0,0,0,0,0,0,0,0,0,0,0,0,0,0,0,0,0,0,0,0,0,0,0,0],"sum_hessian":[2.4E3,1.353E3,1.047E3,5.95E2,7.58E2,5.76E2,4.71E2,1.32E2,4.63E2,5.95E2,1.63E2,5.4E1,5.22E2,3.18E2,1.53E2,4.5E1,8.7E1,2.96E2,1.67E2,1.38E2,4.57E2,1.45E2,1.8E1,3.1E1,2.3E1,1.04E2,4.18E2,3.7E1,2.81E2,8.6E1,6.7E1],"tree_param":{"num_deleted":"0","num_feature":"13","num_nodes":"31","size_leaf_vector":"1"}},{"base_weights":[-1.491271E-4,-8.654664E-1,1.3339963E0,-1.9792936E0,-3.6576286E-1,1.0172931E0,2.0787427E0,-2.377276E0,-7.087685E-1,7.420648E-2,-9.2607194E-1,-4.929145E-1,1.122489E0,1.7803774E0,2.5770788E0,-9.299987E-2,-2.94417E-1,-1.0737492E-1,5.605166E-2,-1.2091737E-1,2.290817E-2,-1.843628E-1,-2.103442E-2,-1.6032265E-1,3.3742554E-2,9.709169E-2,1.6373949E-1,1.377789E-1,2.1140967E-1,2.3559093E-1,3.0853575E-1],"categories":[],"categories_nodes":[],"categories_segments":[],"categories_sizes":[],"default_left":[0,0,0,0,0,0,0,0,0,0,0,0,0,0,0,0,0,0,0,0,0,0,0,0,0,0,0,0,0,0,0],"id":4,"left_children":[1,3,5,7,9,11,13,15,17,19,21,23,25,27,29,-1,-1,-1,-1,-1,-1,-1,-1,-1,-1,-1,-1,-1,-1,-1,-1],"loss_changes":[2.773011E3,8.1021814E2,2.2077649E2,2.2636157E2,2.4831319E2,1.06200195E2,3.7192627E1,2.7867725E2,5.109768E1,1.1257854E2,2.9053925E2,4.110617E1,4.6954468E1,2.113617E1,4.3099976E0,0E0,0E0,0E0,0E0,0E0,0E0,0E0,0E0,0E0,0E0,0E0,0E0,0E0,0E0,0E0,0E0],"parents":[2147483647,0,0,1,1,2,2,3,3,4,4,5,5,6,6,7,7,8,8,9,9,10,10,11,11,12,12,13,13,14,14],"right_children":[2,4,6,8,10,12,14,16,18,20,22,24,26,28,30,-1,-1,-1,-1,-1,-1,-1,-1,-1,-1,-1,-1,-1,-1,-1,-1],"split_conditions":[1.6454569E1,2.958988E0,1.7875954E1,1.460239E1,2.01E3,3.779077E0,1E0,1.994E3,1.28E2,8E0,1.3396962E1,1.04E2,1E0,1.0639244E1,1.37E2,-9.299987E-2,-2.94417E-1,-1.0737492E-1,5.605166E-2,-1.2091737E-1,2.290817E-2,-1.843628E-1,-2.103442E-2,-1.6032265E-1,3.3742554E-2,9.709169E-2,1.6373949E-1,1.377789E-1,2.1140967E-1,2.3559093E-1,3.0853575E-1],"split_indices":[0,1,0,0,11,1,8,11,2,4,0,2,8,1,2,0,0,0,0,0,0,0,0,0,0,0,0,0,0,0,0],"split_type":[0,0,0,0,0,0,0,0,0,0,0,0,0,0,0,0,0,0,0,0,0,0,0,0,0,0,0,0,0,0,0],"sum_hessian":[2.4E3,1.456E3,9.44E2,4.5E2,1.006E3,6.64E2,2.8E2,3.42E2,1.08E2,5.64E2,4.42E2,4.3E1,6.21E2,1.78E2,1.02E2,9.7E1,2.45E2,8.4E1,2.4E1,6E1,5.04E2,1.93E2,2.49E2,1.8E1,2.5E1,4.82E2,1.39E2,8.3E1,9.5E1,7.5E1,2.7E1],"tree_param":{"num_deleted":"0","num_feature":"13","num_nodes":"31","size_leaf_vector":"1"}},{"base_weights":[-1.5340214E-5,-1.2309269E0,7.695126E-1,-2.2020097E0,-7.003694E-1,1.6442448E-1,1.414992E0,-9.680325E-1,-2.6401513E0,-1.9052106E-1,-1.3554395E0,-4.8384574E-1,5.116609E-1,1.1152E0,1.8740472E0,-7.691748E-2,-2.8356057E-1,-3.1201944E-1,-1.6771394E-1,-7.112264E-2,1.0310372E-2,-1.595825E-1,5.5673547E-2,-1.9477454E-1,-3.1783275E-2,2.8744875E-2,1.18559554E-1,4.7458272E-2,1.283286E-1,1.6696106E-1,2.4898615E-1],"categories":[],"categories_nodes":[],"categories_segments":[],"categories_sizes":[],"default_left":[0,0,0,0,0,0,0,0,0,0,0,0,0,0,0,0,0,0,0,0,0,0,0,0,0,0,0,0,0,0,0],"id":5,"left_children":[1,3,5,7,9,11,13,15,17,19,21,23,25,27,29,-1,-1,-1,-1,-1,-1,-1,-1,-1,-1,-1,-1,-1,-1,-1,-1],"loss_changes":[2.2752244E3,4.7451672E2,5.770326E2,1.7369849E2,1.9979965E2,1.7222626E2,9.6309204E1,3.0129105E1,1.0571582E2,5.175083E1,1.2131909E2,6.426898E1,7.4909134E1,4.6231262E1,3.12193E1,0E0,0E0,0E0,0E0,0E0,0E0,0E0,0E0,0E0,0E0,0E0,0E0,0E0,0E0,0E0,0E0],"parents":[2147483647,0,0,1,1,2,2,3,3,4,4,5,5,6,6,7,7,8,8,9,9,10,10,11,11,12,12,13,13,14,14],"right_children":[2,4,6,8,10,12,14,16,18,20,22,24,26,28,30,-1,-1,-1,-1,-1,-1,-1,-1,-1,-1,-1,-1,-1,-1,-1,-1],"split_conditions":[1.4808763E1,2.738E0,1.6906553E1,1.994E3,2.01E3,5.810716E0,1.7875954E1,1.7E1,1.0108671E1,1.2E1,1.28E2,2E0,1E0,6.636872E0,1.5339153E1,-7.691748E-2,-2.8356057E-1,-3.1201944E-1,-1.6771394E-1,-7.112264E-2,1.0310372E-2,-1.595825E-1,5.5673547E-2,-1.9477454E-1,-3.1783275E-2,2.8744875E-2,1.18559554E-1,4.7458272E-2,1.283286E-1,1.6696106E-1,2.4898615E-1],"split_indices":[0,1,0,11,11,1,0,5,0,4,2,12,8,1,1,0,0,0,0,0,0,0,0,0,0,0,0,0,0,0,0],"split_type":[0,0,0,0,0,0,0,0,0,0,0,0,0,0,0,0,0,0,0,0,0,0,0,0,0,0,0,0,0,0,0],"sum_hessian":[2.4E3,9.23E2,1.477E3,3.25E2,5.98E2,7.63E2,7.14E2,8.6E1,2.39E2,3.37E2,2.61E2,2.66E2,4.97E2,4.34E2,2.8E2,7.9E1,7E0,1.58E2,8.1E1,1.21E2,2.16E2,2.32E2,2.9E1,2.6E1,2.4E2,3.74E2,1.23E2,9.1E1,3.43E2,2.13E2,6.7E1],"tree_param":{"num_deleted":"0","num_feature":"13","num_nodes":"31","size_leaf_vector":"1"}},{"base_weights":[-2.190043E-4,-7.7523345E-1,9.960177E-1,-2.1133811E0,-4.768975E-1,5.058472E-1,1.3796389E0,-2.3223095E0,-1.7356198E-1,2.5062734E-1,-7.3094964E-1,-1.6692894E0,5.824015E-1,1.156728E0,1.8878393E0,-1.15516976E-1,-2.69978E-1,-5.2706238E-2,8.1073366E-2,9.540976E-2,6.828945E-3,-1.19257264E-1,-2.113751E-2,-3.6930516E-1,8.1610434E-2,4.5481037E-2,1.23160556E-1,4.4308066E-2,1.2585796E-1,1.5980262E-1,2.2923139E-1],"categories":[],"categories_nodes":[],"categories_segments":[],"categories_sizes":[],"default_left":[0,0,0,0,0,0,0,0,0,0,0,0,0,0,0,0,0,0,0,0,0,0,0,0,0,0,0,0,0,0,0],"id":6,"left_children":[1,3,5,7,9,11,13,15,17,19,21,23,25,27,29,-1,-1,-1,-1,-1,-1,-1,-1,-1,-1,-1,-1,-1,-1,-1,-1],"loss_changes":[1.8545792E3,5.38335E2,1.96932E2,9.929663E1,2.0460434E2,7.806914E1,6.454028E1,9.468567E1,9.12603E0,3.6748123E1,1.9642294E2,8.3491455E1,3.654892E1,2.9388977E1,1.720227E1,0E0,0E0,0E0,0E0,0E0,0E0,0E0,0E0,0E0,0E0,0E0,0E0,0E0,0E0,0E0,0E0],"parents":[2147483647,0,0,1,1,2,2,3,3,4,4,5,5,6,6,7,7,8,8,9,9,10,10,11,11,12,12,13,13,14,14],"right_children":[2,4,6,8,10,12,14,16,18,20,22,24,26,28,30,-1,-1,-1,-1,-1,-1,-1,-1,-1,-1,-1,-1,-1,-1,-1,-1],"split_conditions":[1.6185755E1,1.417392E0,1.7216707E1,1.41E2,1.994E3,7E0,1E0,1.993E3,2.012E3,1.982E3,1.3652993E1,4E0,3.7E1,6.167646E0,1.358903E1,-1.15516976E-1,-2.69978E-1,-5.2706238E-2,8.1073366E-2,9.540976E-2,6.828945E-3,-1.19257264E-1,-2.113751E-2,-3.6930516E-1,8.1610434E-2,4.5481037E-2,1.23160556E-1,4.4308066E-2,1.2585796E-1,1.5980262E-1,2.2923139E-1],"split_indices":[0,1,0,2,11,4,8,11,11,11,0,6,4,1,1,0,0,0,0,0,0,0,0,0,0,0,0,0,0,0,0],"split_type":[0,0,0,0,0,0,0,0,0,0,0,0,0,0,0,0,0,0,0,0,0,0,0,0,0,0,0,0,0,0,0],"sum_hessian":[2.4E3,1.35E3,1.05E3,2.45E2,1.105E3,4.62E2,5.88E2,2.21E2,2.4E1,2.86E2,8.19E2,1.5E1,4.47E2,4.11E2,1.77E2,5.5E1,1.66E2,1.8E1,6E0,5.8E1,2.28E2,4.33E2,3.86E2,8E0,7E0,3.75E2,7.2E1,5.2E1,3.59E2,1.06E2,7.1E1],"tree_param":{"num_deleted":"0","num_feature":"13","num_nodes":"31","size_leaf_vector":"1"}},{"base_weights":[-1.7857463E-4,-1.0082937E0,6.300641E-1,-1.8257339E0,-5.617265E-1,8.637539E-2,1.1021597E0,-8.125922E-1,-2.1853905E0,-1.2541094E-1,-1.1224629E0,-4.848834E-1,4.0945962E-1,8.5853404E-1,1.5412722E0,-6.323956E-2,-2.5129852E-1,-2.6088327E-1,-1.3376752E-1,-3.18056E-2,5.5437177E-2,-1.7993484E-1,-4.723606E-2,-1.7422833E-1,-3.3677053E-2,-6.260263E-2,5.4682672E-2,4.0819533E-2,9.853684E-2,1.3898546E-1,2.213025E-1],"categories":[],"categories_nodes":[],"categories_segments":[],"categories_sizes":[],"default_left":[0,0,0,0,0,0,0,0,0,0,0,0,0,0,0,0,0,0,0,0,0,0,0,0,0,0,0,0,0,0,0],"id":7,"left_children":[1,3,5,7,9,11,13,15,17,19,21,23,25,27,29,-1,-1,-1,-1,-1,-1,-1,-1,-1,-1,-1,-1,-1,-1,-1,-1],"loss_changes":[1.5261278E3,3.3627325E2,3.7926764E2,1.1701294E2,1.4640938E2,1.2717906E2,8.329718E1,2.5068047E1,8.26604E1,4.4439713E1,1.144418E2,4.5786285E1,6.2928696E1,2.8785309E1,2.5506226E1,0E0,0E0,0E0,0E0,0E0,0E0,0E0,0E0,0E0,0E0,0E0,0E0,0E0,0E0,0E0,0E0],"parents":[2147483647,0,0,1,1,2,2,3,3,4,4,5,5,6,6,7,7,8,8,9,9,10,10,11,11,12,12,13,13,14,14],"right_children":[2,4,6,8,10,12,14,16,18,20,22,24,26,28,30,-1,-1,-1,-1,-1,-1,-1,-1,-1,-1,-1,-1,-1,-1,-1,-1],"split_conditions":[1.4808763E1,2.738E0,1.6759949E1,1.994E3,2.01E3,5.810716E0,1.7875954E1,1.7E1,1.0108671E1,1E0,6.866634E0,2E0,1E0,6.636872E0,1.8819456E1,-6.323956E-2,-2.5129852E-1,-2.6088327E-1,-1.3376752E-1,-3.18056E-2,5.5437177E-2,-1.7993484E-1,-4.723606E-2,-1.7422833E-1,-3.3677053E-2,-6.260263E-2,5.4682672E-2,4.0819533E-2,9.853684E-2,1.3898546E-1,2.213025E-1],"split_indices":[0,1,0,11,11,1,0,5,0,8,1,12,9,1,0,0,0,0,0,0,0,0,0,0,0,0,0,0,0,0,0],"split_type":[0,0,0,0,0,0,0,0,0,0,0,0,0,0,0,0,0,0,0,0,0,0,0,0,0,0,0,0,0,0,0],"sum_hessian":[2.4E3,9.23E2,1.477E3,3.25E2,5.98E2,6.87E2,7.9E2,8.6E1,2.39E2,3.37E2,2.61E2,2.48E2,4.39E2,5.1E2,2.8E2,7.9E1,7E0,1.58E2,8.1E1,2.63E2,7.4E1,1.27E2,1.34E2,2.5E1,2.23E2,5.1E1,3.88E2,1.13E2,3.97E2,2.31E2,4.9E1],"tree_param":{"num_deleted":"0","num_feature":"13","num_nodes":"31","size_leaf_vector":"1"}},{"base_weights":[-4.2254903E-4,-9.0845215E-1,5.6724983E-1,-1.9512831E0,-6.13988E-1,1.7350797E-1,1.1028641E0,-4.5596485E0,-1.8208904E0,-1.9560197E-1,-1.1789215E0,-7.791413E-2,7.7343893E-1,9.865512E-1,1.7935773E0,1.736034E-1,-7.996829E-1,-2.0703232E-1,-6.617199E-2,-1.0751774E-1,-5.5792513E-3,-1.5693133E-1,-5.1568784E-3,-1.7476624E-2,9.28625E-2,-4.670833E-2,8.941284E-2,8.505423E-2,1.3634662E-1,1.3363212E-1,1.9418517E-1],"categories":[],"categories_nodes":[],"categories_segments":[],"categories_sizes":[],"default_left":[0,0,0,0,0,0,0,0,0,0,0,0,0,0,0,0,0,0,0,0,0,0,0,0,0,0,0,0,0,0,0],"id":8,"left_children":[1,3,5,7,9,11,13,15,17,19,21,23,25,27,29,-1,-1,-1,-1,-1,-1,-1,-1,-1,-1,-1,-1,-1,-1,-1,-1],"loss_changes":[1.2381427E3,2.8254047E2,3.1150964E2,6.0740112E1,1.7042154E2,1.2872328E2,4.8522705E1,2.0863734E2,5.5011353E1,5.109677E1,1.3503262E2,5.8848526E1,3.814656E1,2.6420166E1,3.439209E0,0E0,0E0,0E0,0E0,0E0,0E0,0E0,0E0,0E0,0E0,0E0,0E0,0E0,0E0,0E0,0E0],"parents":[2147483647,0,0,1,1,2,2,3,3,4,4,5,5,6,6,7,7,8,8,9,9,10,10,11,11,12,12,13,13,14,14],"right_children":[2,4,6,8,10,12,14,16,18,20,22,24,26,28,30,-1,-1,-1,-1,-1,-1,-1,-1,-1,-1,-1,-1,-1,-1,-1,-1],"split_conditions":[1.4808763E1,1.417392E0,1.7073606E1,6.2E1,2.01E3,9.769047E0,1.8515991E1,2.004E3,2.014E3,3E0,2.033E3,1.2E1,3E0,1E0,1E0,1.736034E-1,-7.996829E-1,-2.0703232E-1,-6.617199E-2,-1.0751774E-1,-5.5792513E-3,-1.5693133E-1,-5.1568784E-3,-1.7476624E-2,9.28625E-2,-4.670833E-2,8.941284E-2,8.505423E-2,1.3634662E-1,1.3363212E-1,1.9418517E-1],"split_indices":[0,1,0,2,11,1,0,11,11,5,11,10,6,8,7,0,0,0,0,0,0,0,0,0,0,0,0,0,0,0,0],"split_type":[0,0,0,0,0,0,0,0,0,0,0,0,0,0,0,0,0,0,0,0,0,0,0,0,0,0,0,0,0,0,0],"sum_hessian":[2.4E3,9.23E2,1.477E3,2.02E2,7.21E2,8.52E2,6.25E2,8E0,1.94E2,4.15E2,3.06E2,6.01E2,2.51E2,5.37E2,8.8E1,3E0,5E0,1.59E2,3.5E1,5.6E1,3.59E2,2.27E2,7.9E1,5.49E2,5.2E1,2.2E1,2.29E2,3.97E2,1.4E2,2.4E1,6.4E1],"tree_param":{"num_deleted":"0","num_feature":"13","num_nodes":"31","size_leaf_vector":"1"}},{"base_weights":[-5.9154973E-4,-5.246869E-1,8.074587E-1,-1.0469451E0,-6.627953E-2,6.128315E-1,1.2651799E0,-1.3654673E0,-4.7453213E-1,-2.8223133E-1,6.5152854E-1,-4.5480856E-1,6.873706E-1,9.5962065E-1,1.5256375E0,-4.235148E-2,-1.7761783E-1,-6.551163E-2,4.399624E-2,-1.0542252E-1,-9.425308E-3,4.592168E-2,1.8254928E-1,-1.3986592E-1,2.5242105E-2,5.8056172E-2,1.0509516E-1,6.1805356E-2,1.262529E-1,1.6631876E-1,1.11938976E-1],"categories":[],"categories_nodes":[],"categories_segments":[],"categories_sizes":[],"default_left":[0,0,0,0,0,0,0,0,0,0,0,0,0,0,0,0,0,0,0,0,0,0,0,0,0,0,0,0,0,0,0],"id":9,"left_children":[1,3,5,7,9,11,13,15,17,19,21,23,25,27,29,-1,-1,-1,-1,-1,-1,-1,-1,-1,-1,-1,-1,-1,-1,-1,-1],"loss_changes":[1.0172361E3,3.487466E2,8.340991E1,1.23516235E2,1.2062816E2,5.3233932E1,2.0899414E1,1.6831012E2,4.0748302E1,8.6681244E1,3.9799774E1,2.9723892E1,2.3544434E1,1.2876869E1,6.520172E0,0E0,0E0,0E0,0E0,0E0,0E0,0E0,0E0,0E0,0E0,0E0,0E0,0E0,0E0,0E0,0E0],"parents":[2147483647,0,0,1,1,2,2,3,3,4,4,5,5,6,6,7,7,8,8,9,9,10,10,11,11,12,12,13,13,14,14],"right_children":[2,4,6,8,10,12,14,16,18,20,22,24,26,28,30,-1,-1,-1,-1,-1,-1,-1,-1,-1,-1,-1,-1,-1,-1,-1,-1],"split_conditions":[1.6454569E1,5.230661E0,1.7875954E1,1.3592368E1,1E0,3.779077E0,1.1359659E1,1.995E3,1.3E2,1E0,1.3963892E1,1.04E2,1E0,2.1E1,4E0,-4.235148E-2,-1.7761783E-1,-6.551163E-2,4.399624E-2,-1.0542252E-1,-9.425308E-3,4.592168E-2,1.8254928E-1,-1.3986592E-1,2.5242105E-2,5.8056172E-2,1.0509516E-1,6.1805356E-2,1.262529E-1,1.6631876E-1,1.11938976E-1],"split_indices":[0,1,0,0,8,1,1,11,2,9,1,2,8,4,12,0,0,0,0,0,0,0,0,0,0,0,0,0,0,0,0],"split_type":[0,0,0,0,0,0,0,0,0,0,0,0,0,0,0,0,0,0,0,0,0,0,0,0,0,0,0,0,0,0,0],"sum_hessian":[2.4E3,1.456E3,9.44E2,6.8E2,7.76E2,6.64E2,2.8E2,4.36E2,2.44E2,5.97E2,1.79E2,4.3E1,6.21E2,1.31E2,1.49E2,1.33E2,3.03E2,2.04E2,4E1,1.16E2,4.81E2,1.55E2,2.4E1,1.8E1,2.5E1,4.82E2,1.39E2,6.3E1,6.8E1,1.09E2,4E1],"tree_param":{"num_deleted":"0","num_feature":"13","num_nodes":"31","size_leaf_vector":"1"}},{"base_weights":[-3.7103394E-4,-7.447222E-1,4.649746E-1,-1.7197717E0,-5.129996E-1,6.262492E-2,8.143445E-1,-3.838712E0,-1.5562353E0,1.2020781E-1,-7.490754E-1,-3.194539E-1,3.9379725E-1,6.599969E-1,1.2069743E0,-5.5147268E-2,-5.4133976E-1,-1.7183809E-1,1.905875E-2,-3.9171275E-2,4.2087257E-2,-8.87705E-2,2.364247E-2,-4.6913866E-2,6.301399E-2,1.0963722E-2,8.798241E-2,2.3807757E-2,7.719797E-2,1.0379338E-1,1.7013709E-1],"categories":[],"categories_nodes":[],"categories_segments":[],"categories_sizes":[],"default_left":[0,0,0,0,0,0,0,0,0,0,0,0,0,0,0,0,0,0,0,0,0,0,0,0,0,0,0,0,0,0,0],"id":10,"left_children":[1,3,5,7,9,11,13,15,17,19,21,23,25,27,29,-1,-1,-1,-1,-1,-1,-1,-1,-1,-1,-1,-1,-1,-1,-1,-1],"loss_changes":[8.320061E2,2.0788727E2,2.0770978E2,5.536084E1,1.11904785E2,8.718115E1,4.713922E1,5.913109E1,4.7345215E1,3.1563822E1,7.466748E1,4.578033E1,5.086591E1,2.6747406E1,1.6787292E1,0E0,0E0,0E0,0E0,0E0,0E0,0E0,0E0,0E0,0E0,0E0,0E0,0E0,0E0,0E0,0E0],"parents":[2147483647,0,0,1,1,2,2,3,3,4,4,5,5,6,6,7,7,8,8,9,9,10,10,11,11,12,12,13,13,14,14],"right_children":[2,4,6,8,10,12,14,16,18,20,22,24,26,28,30,-1,-1,-1,-1,-1,-1,-1,-1,-1,-1,-1,-1,-1,-1,-1,-1],"split_conditions":[1.4808763E1,1.194377E0,1.6759949E1,1E0,1.994E3,6E0,1E0,2E0,1.4E2,1.2E1,1.23E2,1.3E2,9.615664E0,6.701138E0,1.26E2,-5.5147268E-2,-5.4133976E-1,-1.7183809E-1,1.905875E-2,-3.9171275E-2,4.2087257E-2,-8.87705E-2,2.364247E-2,-4.6913866E-2,6.301399E-2,1.0963722E-2,8.798241E-2,2.3807757E-2,7.719797E-2,1.0379338E-1,1.7013709E-1],"split_indices":[0,1,0,12,11,6,8,3,2,4,2,2,1,1,2,0,0,0,0,0,0,0,0,0,0,0,0,0,0,0,0],"split_type":[0,0,0,0,0,0,0,0,0,0,0,0,0,0,0,0,0,0,0,0,0,0,0,0,0,0,0,0,0,0,0],"sum_hessian":[2.4E3,9.23E2,1.477E3,1.76E2,7.47E2,6.87E2,7.9E2,1.1E1,1.65E2,2.03E2,5.44E2,3.19E2,3.68E2,5.69E2,2.21E2,4E0,7E0,1.51E2,1.4E1,7.5E1,1.28E2,4.77E2,6.7E1,2.76E2,4.3E1,2.33E2,1.35E2,1.2E2,4.49E2,1.67E2,5.4E1],"tree_param":{"num_deleted":"0","num_feature":"13","num_nodes":"31","size_leaf_vector":"1"}},{"base_weights":[-4.6782114E-4,-4.695709E-1,6.0253763E-1,-9.425415E-1,-9.831224E-2,3.5414672E-1,9.064872E-1,-1.3242111E0,-4.7649366E-1,-2.6854137E-1,5.198868E-1,-1.2935994E0,4.0619874E-1,8.064371E-1,1.5551021E0,-2.6759664E-2,-1.5812941E-1,-1.3829552E-1,-2.316824E-2,-9.65291E-2,-1.049777E-2,3.5947E-2,1.7252009E-1,-3.272711E-1,6.1696112E-2,3.2026563E-2,9.526351E-2,4.381071E-2,9.330104E-2,1.5835556E-1,4.6766724E-2],"categories":[],"categories_nodes":[],"categories_segments":[],"categories_sizes":[],"default_left":[0,0,0,0,0,0,0,0,0,0,0,0,0,0,0,0,0,0,0,0,0,0,0,0,0,0,0,0,0,0,0],"id":11,"left_children":[1,3,5,7,9,11,13,15,17,19,21,23,25,27,29,-1,-1,-1,-1,-1,-1,-1,-1,-1,-1,-1,-1,-1,-1,-1,-1],"loss_changes":[6.7945795E2,2.3713538E2,7.902771E1,1.0502759E2,7.9908104E1,5.0271187E1,2.9375885E1,8.813074E1,5.9373924E1,6.77066E1,3.1089676E1,7.008096E1,2.6131683E1,1.875235E1,1.1777954E0,0E0,0E0,0E0,0E0,0E0,0E0,0E0,0E0,0E0,0E0,0E0,0E0,0E0,0E0,0E0,0E0],"parents":[2147483647,0,0,1,1,2,2,3,3,4,4,5,5,6,6,7,7,8,8,9,9,10,10,11,11,12,12,13,13,14,14],"right_children":[2,4,6,8,10,12,14,16,18,20,22,24,26,28,30,-1,-1,-1,-1,-1,-1,-1,-1,-1,-1,-1,-1,-1,-1,-1,-1],"split_conditions":[1.6185755E1,4.672036E0,1.7399029E1,1.02E2,1E0,7E0,1.8344227E1,1.991E3,1E0,9.1E1,1.3963892E1,4E0,5.3E1,1.6E1,6E0,-2.6759664E-2,-1.5812941E-1,-1.3829552E-1,-2.316824E-2,-9.65291E-2,-1.049777E-2,3.5947E-2,1.7252009E-1,-3.272711E-1,6.1696112E-2,3.2026563E-2,9.526351E-2,4.381071E-2,9.330104E-2,1.5835556E-1,4.6766724E-2],"split_indices":[0,1,0,2,8,4,1,11,6,2,1,6,5,4,12,0,0,0,0,0,0,0,0,0,0,0,0,0,0,0,0],"split_type":[0,0,0,0,0,0,0,0,0,0,0,0,0,0,0,0,0,0,0,0,0,0,0,0,0,0,0,0,0,0,0],"sum_hessian":[2.4E3,1.35E3,1.05E3,5.93E2,7.57E2,5.79E2,4.71E2,3.25E2,2.68E2,5.94E2,1.63E2,1.7E1,5.62E2,4.1E2,6.1E1,6.4E1,2.61E2,5.6E1,2.12E2,1.12E2,4.82E2,1.45E2,1.8E1,8E0,9E0,4.87E2,7.5E1,1.06E2,3.04E2,5.9E1,2E0],"tree_param":{"num_deleted":"0","num_feature":"13","num_nodes":"31","size_leaf_vector":"1"}},{"base_weights":[-4.3804155E-4,-6.1083555E-1,3.8860226E-1,-1.4318428E0,-4.1723382E-1,1.012256E-1,7.388661E-1,-3.3850958E0,-1.2829154E0,-1.0794509E-1,-8.4484106E-1,-1.9323374E-1,3.8400394E-1,5.728794E-1,1.085294E0,-2.5154894E-2,-4.9204254E-1,-1.0738134E-1,-2.5453886E-1,-5.4915614E-2,1.45232575E-2,-1.1923243E-1,1.5336218E-2,-2.908182E-2,9.651255E-2,-3.1647466E-2,4.9054675E-2,4.5464166E-2,9.809828E-2,6.2370845E-3,1.1514721E-1],"categories":[],"categories_nodes":[],"categories_segments":[],"categories_sizes":[],"default_left":[0,0,0,0,0,0,0,0,0,0,0,0,0,0,0,0,0,0,0,0,0,0,0,0,0,0,0,0,0,0,0],"id":12,"left_children":[1,3,5,7,9,11,13,15,17,19,21,23,25,27,29,-1,-1,-1,-1,-1,-1,-1,-1,-1,-1,-1,-1,-1,-1,-1,-1],"loss_changes":[5.70401E2,1.4801935E2,1.4758995E2,4.7436188E1,1.00157425E2,6.727045E1,3.738736E1,5.6494614E1,4.1352325E1,4.9341564E1,1.1048395E2,4.504366E1,3.090319E1,2.1219711E1,1.43472595E1,0E0,0E0,0E0,0E0,0E0,0E0,0E0,0E0,0E0,0E0,0E0,0E0,0E0,0E0,0E0,0E0],"parents":[2147483647,0,0,1,1,2,2,3,3,4,4,5,5,6,6,7,7,8,8,9,9,10,10,11,11,12,12,13,13,14,14],"right_children":[2,4,6,8,10,12,14,16,18,20,22,24,26,28,30,-1,-1,-1,-1,-1,-1,-1,-1,-1,-1,-1,-1,-1,-1,-1,-1],"split_conditions":[1.4914124E1,1.194377E0,9.356587E0,1E0,2.01E3,1.6477167E1,1E0,2.003E3,5E0,9.6E1,2.033E3,1.2E1,6E0,1.7974394E1,2E0,-2.5154894E-2,-4.9204254E-1,-1.0738134E-1,-2.5453886E-1,-5.4915614E-2,1.45232575E-2,-1.1923243E-1,1.5336218E-2,-2.908182E-2,9.651255E-2,-3.1647466E-2,4.9054675E-2,4.5464166E-2,9.809828E-2,6.2370845E-3,1.1514721E-1],"split_indices":[0,1,1,12,11,0,8,11,12,2,11,10,5,0,10,0,0,0,0,0,0,0,0,0,0,0,0,0,0,0,0],"split_type":[0,0,0,0,0,0,0,0,0,0,0,0,0,0,0,0,0,0,0,0,0,0,0,0,0,0,0,0,0,0,0],"sum_hessian":[2.4E3,9.34E2,1.466E3,1.77E2,7.57E2,8.06E2,6.6E2,1.1E1,1.66E2,4.4E2,3.17E2,3.95E2,4.11E2,4.48E2,2.12E2,4E0,7E0,1.44E2,2.2E1,1.6E2,2.8E2,2.35E2,8.2E1,3.65E2,3E1,5.4E1,3.57E2,3.49E2,9.9E1,1.3E1,1.99E2],"tree_param":{"num_deleted":"0","num_feature":"13","num_nodes":"31","size_leaf_vector":"1"}},{"base_weights":[-6.7489874E-4,-5.5645937E-1,3.4678486E-1,-1.0633512E0,-2.7965936E-1,9.048024E-2,6.599956E-1,-3.580348E-1,-1.3145977E0,-2.8407315E-2,-7.7702206E-1,-1.8451905E-1,3.4511203E-1,5.690544E-1,1.2273712E0,-1.9350145E-2,-1.9586138E-1,-1.5822266E-1,-2.3910085E-2,2.026003E-3,-2.4095564E-1,-1.4448756E-1,-1.7680613E-2,-2.9981552E-2,8.098438E-2,-7.2635105E-4,4.8469067E-2,4.4471588E-2,8.779474E-2,-4.6688296E-2,1.2904353E-1],"categories":[],"categories_nodes":[],"categories_segments":[],"categories_sizes":[],"default_left":[0,0,0,0,0,0,0,0,0,0,0,0,0,0,0,0,0,0,0,0,0,0,0,0,0,0,0,0,0,0,0],"id":13,"left_children":[1,3,5,7,9,11,13,15,17,19,21,23,25,27,29,-1,-1,-1,-1,-1,-1,-1,-1,-1,-1,-1,-1,-1,-1,-1,-1],"loss_changes":[4.6385663E2,1.2934692E2,1.1859021E2,5.7299225E1,7.4831E1,5.706286E1,3.3614075E1,2.2532333E1,6.870184E1,4.6286617E1,8.031667E1,4.518424E1,2.0808392E1,2.1693771E1,1.0325531E1,0E0,0E0,0E0,0E0,0E0,0E0,0E0,0E0,0E0,0E0,0E0,0E0,0E0,0E0,0E0,0E0],"parents":[2147483647,0,0,1,1,2,2,3,3,4,4,5,5,6,6,7,7,8,8,9,9,10,10,11,11,12,12,13,13,14,14],"right_children":[2,4,6,8,10,12,14,16,18,20,22,24,26,28,30,-1,-1,-1,-1,-1,-1,-1,-1,-1,-1,-1,-1,-1,-1,-1,-1],"split_conditions":[1.4808763E1,2.738E0,9.356587E0,1.994E3,2.013E3,1.6E1,1.8344227E1,1.7E1,1.6E1,1.4731802E1,6.866634E0,1.2E1,5.695908E0,1E0,2E0,-1.9350145E-2,-1.9586138E-1,-1.5822266E-1,-2.3910085E-2,2.026003E-3,-2.4095564E-1,-1.4448756E-1,-1.7680613E-2,-2.9981552E-2,8.098438E-2,-7.2635105E-4,4.8469067E-2,4.4471588E-2,8.779474E-2,-4.6688296E-2,1.2904353E-1],"split_indices":[0,1,1,11,11,4,1,5,4,0,1,10,1,8,6,0,0,0,0,0,0,0,0,0,0,0,0,0,0,0,0],"split_type":[0,0,0,0,0,0,0,0,0,0,0,0,0,0,0,0,0,0,0,0,0,0,0,0,0,0,0,0,0,0,0],"sum_hessian":[2.4E3,9.23E2,1.477E3,3.25E2,5.98E2,8.13E2,6.64E2,8.6E1,2.39E2,3.98E2,2E2,3.91E2,4.22E2,5.74E2,9E1,7.9E1,7E0,1.91E2,4.8E1,3.91E2,7E0,9.4E1,1.06E2,3.51E2,4E1,1.2E2,3.02E2,4.11E2,1.63E2,3E0,8.7E1],"tree_param":{"num_deleted":"0","num_feature":"13","num_nodes":"31","size_leaf_vector":"1"}},{"base_weights":[-8.095142E-4,-3.3183044E-1,4.762113E-1,-1.0315921E0,-1.8334816E-1,3.435372E-1,8.0691004E-1,-1.1914561E0,4.4205257E-1,4.6917986E-2,-4.96809E-1,-4.3064418E-1,4.0594223E-1,5.4189515E-1,9.982365E-1,-1.0816681E-1,-4.4403645E-1,1.0525311E-2,1.1445948E-1,-4.9804E-2,2.1136316E-2,-7.603761E-2,3.3537086E-2,-1.218596E-1,-2.4705993E-3,5.5695325E-2,2.3857338E-2,5.7856448E-2,-1.9108759E-1,1.0325279E-1,-2.8502256E-2],"categories":[],"categories_nodes":[],"categories_segments":[],"categories_sizes":[],"default_left":[0,0,0,0,0,0,0,0,0,0,0,0,0,0,0,0,0,0,0,0,0,0,0,0,0,0,0,0,0,0,0],"id":14,"left_children":[1,3,5,7,9,11,13,15,17,19,21,23,25,27,29,-1,-1,-1,-1,-1,-1,-1,-1,-1,-1,-1,-1,-1,-1,-1,-1],"loss_changes":[3.7928522E2,1.471442E2,4.2895935E1,5.895117E1,8.454541E1,3.4187027E1,1.370697E1,7.509595E1,5.7949233E0,6.068548E1,1.0904524E2,1.6922459E1,1.6346123E1,1.1898529E1,7.4230804E0,0E0,0E0,0E0,0E0,0E0,0E0,0E0,0E0,0E0,0E0,0E0,0E0,0E0,0E0,0E0,0E0],"parents":[2147483647,0,0,1,1,2,2,3,3,4,4,5,5,6,6,7,7,8,8,9,9,10,10,11,11,12,12,13,13,14,14],"right_children":[2,4,6,8,10,12,14,16,18,20,22,24,26,28,30,-1,-1,-1,-1,-1,-1,-1,-1,-1,-1,-1,-1,-1,-1,-1,-1],"split_conditions":[1.6321037E1,1.417392E0,1.7875954E1,1.43E2,2.01E3,3.779077E0,1E0,1.37E2,4E0,9.2E1,2.033E3,1E1,2.006E3,5E0,6E0,-1.0816681E-1,-4.4403645E-1,1.0525311E-2,1.1445948E-1,-4.9804E-2,2.1136316E-2,-7.603761E-2,3.3537086E-2,-1.218596E-1,-2.4705993E-3,5.5695325E-2,2.3857338E-2,5.7856448E-2,-1.9108759E-1,1.0325279E-1,-2.8502256E-2],"split_indices":[0,1,0,2,11,1,7,2,6,2,11,4,11,12,12,0,0,0,0,0,0,0,0,0,0,0,0,0,0,0,0],"split_type":[0,0,0,0,0,0,0,0,0,0,0,0,0,0,0,0,0,0,0,0,0,0,0,0,0,0,0,0,0,0,0],"sum_hessian":[2.4E3,1.417E3,9.83E2,2.47E2,1.17E3,7.03E2,2.8E2,2.23E2,2.4E1,6.75E2,4.95E2,5.2E1,6.51E2,1.19E2,1.61E2,2.17E2,6E0,1.7E1,7E0,1.56E2,5.19E2,3.76E2,1.19E2,1.7E1,3.5E1,3.41E2,3.1E2,1.18E2,1E0,1.57E2,4E0],"tree_param":{"num_deleted":"0","num_feature":"13","num_nodes":"31","size_leaf_vector":"1"}},{"base_weights":[-9.790335E-4,-4.6444976E-1,2.8876922E-1,-7.5653774E-1,-1.1671306E-1,-2.8332973E-2,4.7782835E-1,-1.534157E-1,-1.0034546E0,-1.0365045E0,1.0175274E-3,-2.5839862E-1,3.007448E-1,3.5834455E-1,8.084819E-1,-1.3902488E-1,5.2308016E-3,-1.09200954E-1,6.2470376E-2,-5.5586666E-1,-8.220188E-2,4.0132557E-3,-2.4177647E-1,6.234323E-2,-4.637387E-2,-2.578983E-2,4.5911588E-2,-1.10158E-2,4.3903258E-2,-1.5613489E-1,8.542938E-2],"categories":[],"categories_nodes":[],"categories_segments":[],"categories_sizes":[],"default_left":[0,0,0,0,0,0,0,0,0,0,0,0,0,0,0,0,0,0,0,0,0,0,0,0,0,0,0,0,0,0,0],"id":15,"left_children":[1,3,5,7,9,11,13,15,17,19,21,23,25,27,29,-1,-1,-1,-1,-1,-1,-1,-1,-1,-1,-1,-1,-1,-1,-1,-1],"loss_changes":[3.2256403E2,9.37621E1,8.8621216E1,7.46044E1,4.58067E1,4.194506E1,3.6294434E1,3.747627E1,5.2010803E1,4.1987743E1,3.567067E1,5.9319633E1,2.0290224E1,2.5829689E1,2.7932663E1,0E0,0E0,0E0,0E0,0E0,0E0,0E0,0E0,0E0,0E0,0E0,0E0,0E0,0E0,0E0,0E0],"parents":[2147483647,0,0,1,1,2,2,3,3,4,4,5,5,6,6,7,7,8,8,9,9,10,10,11,11,12,12,13,13,14,14],"right_children":[2,4,6,8,10,12,14,16,18,20,22,24,26,28,30,-1,-1,-1,-1,-1,-1,-1,-1,-1,-1,-1,-1,-1,-1,-1,-1],"split_conditions":[1.4808763E1,5.159349E0,1.6E1,1.995E3,8E0,1.6759949E1,1E0,6E0,1.51E2,1.979E3,6E1,1.991E3,4E0,5.695908E0,1.194377E0,-1.3902488E-1,5.2308016E-3,-1.09200954E-1,6.2470376E-2,-5.5586666E-1,-8.220188E-2,4.0132557E-3,-2.4177647E-1,6.234323E-2,-4.637387E-2,-2.578983E-2,4.5911588E-2,-1.10158E-2,4.3903258E-2,-1.5613489E-1,8.542938E-2],"split_indices":[0,1,4,11,4,0,8,4,2,11,4,11,6,1,1,0,0,0,0,0,0,0,0,0,0,0,0,0,0,0,0],"split_type":[0,0,0,0,0,0,0,0,0,0,0,0,0,0,0,0,0,0,0,0,0,0,0,0,0,0,0,0,0,0,0],"sum_hessian":[2.4E3,9.23E2,1.477E3,5.01E2,4.22E2,5.52E2,9.25E2,1.46E2,3.55E2,4.7E1,3.75E2,3.25E2,2.27E2,6.81E2,2.44E2,2E1,1.26E2,3.37E2,1.8E1,1E0,4.6E1,3.7E2,5E0,6.1E1,2.64E2,5E1,1.77E2,1E2,5.81E2,4E0,2.4E2],"tree_param":{"num_deleted":"0","num_feature":"13","num_nodes":"31","size_leaf_vector":"1"}},{"base_weights":[-1.3218923E-3,-3.583948E-1,3.0854955E-1,-7.1491736E-1,-8.3231E-2,-4.8167408E-1,3.917875E-1,-3.4396386E-1,-1.3962412E0,-4.3283322E-1,1.5501739E-1,-8.1051004E-1,4.3971226E-1,2.9202792E-1,7.956285E-1,-2.2726834E-2,-4.299326E-1,-1.3311899E-1,-6.2274843E-1,-5.6135174E-2,7.7713184E-2,4.5023016E-3,7.335707E-2,9.8377846E-2,-1.0441726E-1,-5.7653047E-2,7.879712E-2,-7.1097948E-3,4.1473005E-2,5.2822378E-2,9.901546E-2],"categories":[],"categories_nodes":[],"categories_segments":[],"categories_sizes":[],"default_left":[0,0,0,0,0,0,0,0,0,0,0,0,0,0,0,0,0,0,0,0,0,0,0,0,0,0,0,0,0,0,0],"id":16,"left_children":[1,3,5,7,9,11,13,15,17,19,21,23,25,27,29,-1,-1,-1,-1,-1,-1,-1,-1,-1,-1,-1,-1,-1,-1,-1,-1],"loss_changes":[2.6577332E2,1.0942244E2,8.477741E1,1.22351135E2,5.2624454E1,3.7623543E1,4.6661728E1,1.4488E2,4.545169E1,4.0244976E1,2.3894714E1,3.9179714E1,1.2133503E1,4.1689636E1,1.1440933E1,0E0,0E0,0E0,0E0,0E0,0E0,0E0,0E0,0E0,0E0,0E0,0E0,0E0,0E0,0E0,0E0],"parents":[2147483647,0,0,1,1,2,2,3,3,4,4,5,5,6,6,7,7,8,8,9,9,10,10,11,11,12,12,13,13,14,14],"right_children":[2,4,6,8,10,12,14,16,18,20,22,24,26,28,30,-1,-1,-1,-1,-1,-1,-1,-1,-1,-1,-1,-1,-1,-1,-1,-1],"split_conditions":[6.816276E0,1.180564E1,1E0,2.01E3,4E0,1E1,1.4054862E1,1.7917595E0,4.6E1,1.2E1,1E0,8.9E1,1.1E1,9.6E1,1E0,-2.2726834E-2,-4.299326E-1,-1.3311899E-1,-6.2274843E-1,-5.6135174E-2,7.7713184E-2,4.5023016E-3,7.335707E-2,9.8377846E-2,-1.0441726E-1,-5.7653047E-2,7.879712E-2,-7.1097948E-3,4.1473005E-2,5.2822378E-2,9.901546E-2],"split_indices":[1,0,9,11,6,10,1,0,4,10,8,2,5,2,7,0,0,0,0,0,0,0,0,0,0,0,0,0,0,0,0],"split_type":[0,0,0,0,0,0,0,0,0,0,0,0,0,0,0,0,0,0,0,0,0,0,0,0,0,0,0,0,0,0,0],"sum_hessian":[2.4E3,1.115E3,1.285E3,4.85E2,6.3E2,1.22E2,1.163E3,3.15E2,1.7E2,2.55E2,3.75E2,9E1,3.2E1,9.34E2,2.29E2,3.07E2,8E0,1.69E2,1E0,2.31E2,2.4E1,3.16E2,5.9E1,1E1,8E1,8E0,2.4E1,2.36E2,6.98E2,9.8E1,1.31E2],"tree_param":{"num_deleted":"0","num_feature":"13","num_nodes":"31","size_leaf_vector":"1"}},{"base_weights":[-1.5679345E-3,-3.845264E-1,2.3784694E-1,-9.9907523E-1,-2.515822E-1,-3.0930992E-2,3.9810216E-1,-4.21547E0,-8.288189E-1,1.5709374E0,-2.9033384E-1,-2.4431461E-1,2.3056674E-1,2.558591E-1,6.2827045E-1,1.2597738E-1,-6.250514E-1,-1.07504785E-1,2.4938505E-2,-1.6457701E-2,2.3747693E-1,-5.221884E-3,-6.269165E-2,5.8609255E-2,-4.334266E-2,-1.5699565E-2,4.252937E-2,-2.9081339E-2,3.2745596E-2,7.7160396E-2,4.0204775E-2],"categories":[],"categories_nodes":[],"categories_segments":[],"categories_sizes":[],"default_left":[0,0,0,0,0,0,0,0,0,0,0,0,0,0,0,0,0,0,0,0,0,0,0,0,0,0,0,0,0,0,0],"id":17,"left_children":[1,3,5,7,9,11,13,15,17,19,21,23,25,27,29,-1,-1,-1,-1,-1,-1,-1,-1,-1,-1,-1,-1,-1,-1,-1,-1],"loss_changes":[2.2022942E2,7.52401E1,6.3674316E1,8.631439E1,5.420221E1,3.0913363E1,3.0156342E1,9.701312E1,4.194924E1,2.2711819E1,5.9755714E1,4.8151215E1,1.8858513E1,2.2561604E1,1.113591E1,0E0,0E0,0E0,0E0,0E0,0E0,0E0,0E0,0E0,0E0,0E0,0E0,0E0,0E0,0E0,0E0],"parents":[2147483647,0,0,1,1,2,2,3,3,4,4,5,5,6,6,7,7,8,8,9,9,10,10,11,11,12,12,13,13,14,14],"right_children":[2,4,6,8,10,12,14,16,18,20,22,24,26,28,30,-1,-1,-1,-1,-1,-1,-1,-1,-1,-1,-1,-1,-1,-1,-1,-1],"split_conditions":[1.4808763E1,1.077252E0,1.6E1,6.2E1,7.7E1,1.6648724E1,1.7453096E1,2.004E3,2.014E3,1E1,2.01E3,1.991E3,5E0,3E0,4E0,1.2597738E-1,-6.250514E-1,-1.07504785E-1,2.4938505E-2,-1.6457701E-2,2.3747693E-1,-5.221884E-3,-6.269165E-2,5.8609255E-2,-4.334266E-2,-1.5699565E-2,4.252937E-2,-2.9081339E-2,3.2745596E-2,7.7160396E-2,4.0204775E-2],"split_indices":[0,1,4,2,2,0,0,11,11,5,11,11,6,6,12,0,0,0,0,0,0,0,0,0,0,0,0,0,0,0,0],"split_type":[0,0,0,0,0,0,0,0,0,0,0,0,0,0,0,0,0,0,0,0,0,0,0,0,0,0,0,0,0,0,0],"sum_hessian":[2.4E3,9.23E2,1.477E3,1.63E2,7.6E2,5.52E2,9.25E2,7E0,1.56E2,1.5E1,7.45E2,3.04E2,2.48E2,5.73E2,3.52E2,2E0,5E0,1.27E2,2.9E1,5E0,1E1,4.37E2,3.08E2,5.6E1,2.48E2,8.3E1,1.65E2,6.6E1,5.07E2,2.14E2,1.38E2],"tree_param":{"num_deleted":"0","num_feature":"13","num_nodes":"31","size_leaf_vector":"1"}},{"base_weights":[-1.5215689E-3,-3.0116442E-1,2.5851184E-1,-6.05309E-1,-6.6433154E-2,-4.1877306E-1,3.298585E-1,-2.815283E-1,-1.2001008E0,-2.3697385E-1,2.7904603E-1,-8.2726085E-1,1.7413639E-1,2.538317E-1,7.257106E-1,-1.7551005E-2,-3.8784274E-1,-1.1379278E-1,-5.884764E-1,-3.2717E-2,6.8546556E-2,1.3292091E-2,7.4106544E-2,9.226004E-2,-1.0877507E-1,-1.5744945E-2,1.0617168E-1,-1.5590556E-2,3.2649994E-2,1.1412543E-1,6.2251788E-2],"categories":[],"categories_nodes":[],"categories_segments":[],"categories_sizes":[],"default_left":[0,0,0,0,0,0,0,0,0,0,0,0,0,0,0,0,0,0,0,0,0,0,0,0,0,0,0,0,0,0,0],"id":18,"left_children":[1,3,5,7,9,11,13,15,17,19,21,23,25,27,29,-1,-1,-1,-1,-1,-1,-1,-1,-1,-1,-1,-1,-1,-1,-1,-1],"loss_changes":[1.8715694E2,7.963355E1,6.228025E1,9.3257034E1,3.724355E1,2.9934196E1,3.4846794E1,1.19821785E2,4.3109024E1,3.5418076E1,1.4011639E1,3.42785E1,1.5176929E1,2.9170727E1,7.3083115E0,0E0,0E0,0E0,0E0,0E0,0E0,0E0,0E0,0E0,0E0,0E0,0E0,0E0,0E0,0E0,0E0],"parents":[2147483647,0,0,1,1,2,2,3,3,4,4,5,5,6,6,7,7,8,8,9,9,10,10,11,11,12,12,13,13,14,14],"right_children":[2,4,6,8,10,12,14,16,18,20,22,24,26,28,30,-1,-1,-1,-1,-1,-1,-1,-1,-1,-1,-1,-1,-1,-1,-1,-1],"split_conditions":[6.816276E0,1.180564E1,1E0,2.01E3,7E0,9E0,1.467986E1,1.7917595E0,4.6E1,1.2E1,2.012E3,8.9E1,1.23E2,9.1E1,1.6300417E1,-1.7551005E-2,-3.8784274E-1,-1.1379278E-1,-5.884764E-1,-3.2717E-2,6.8546556E-2,1.3292091E-2,7.4106544E-2,9.226004E-2,-1.0877507E-1,-1.5744945E-2,1.0617168E-1,-1.5590556E-2,3.2649994E-2,1.1412543E-1,6.2251788E-2],"split_indices":[1,0,9,11,6,10,1,0,4,10,11,2,2,2,0,0,0,0,0,0,0,0,0,0,0,0,0,0,0,0,0],"split_type":[0,0,0,0,0,0,0,0,0,0,0,0,0,0,0,0,0,0,0,0,0,0,0,0,0,0,0,0,0,0,0],"sum_hessian":[2.4E3,1.115E3,1.285E3,4.85E2,6.3E2,1.22E2,1.163E3,3.15E2,1.7E2,4.22E2,2.08E2,7.2E1,5E1,9.77E2,1.86E2,3.07E2,8E0,1.69E2,1E0,3.85E2,3.7E1,1.59E2,4.9E1,9E0,6.3E1,3.7E1,1.3E1,1.47E2,8.3E2,3.5E1,1.51E2],"tree_param":{"num_deleted":"0","num_feature":"13","num_nodes":"31","size_leaf_vector":"1"}},{"base_weights":[-1.6681094E-3,-3.679141E-1,1.7412198E-1,-6.213134E-1,-8.1751175E-2,6.1926644E-2,5.080813E-1,-3.5455072E-1,-1.0366527E0,-4.4260528E-2,-3.4729621E0,-4.0152407E-1,1.6698156E-1,4.3408877E-1,1.0062977E0,1.9327601E-2,-8.662159E-2,-1.9585489E-1,-6.73217E-2,-1.4179724E-2,7.493318E-2,-6.015999E-1,-6.199506E-2,-7.345855E-2,1.0782539E-5,-4.210224E-2,2.4305148E-2,3.5169482E-2,8.7067604E-2,-2.8769588E-2,1.1201241E-1],"categories":[],"categories_nodes":[],"categories_segments":[],"categories_sizes":[],"default_left":[0,0,0,0,0,0,0,0,0,0,0,0,0,0,0,0,0,0,0,0,0,0,0,0,0,0,0,0,0,0,0],"id":19,"left_children":[1,3,5,7,9,11,13,15,17,19,21,23,25,27,29,-1,-1,-1,-1,-1,-1,-1,-1,-1,-1,-1,-1,-1,-1,-1,-1],"loss_changes":[1.5464624E2,5.6437218E1,6.0780197E1,4.5391617E1,4.6506184E1,5.927138E1,1.4603813E1,7.10843E1,5.262451E1,2.828145E1,2.5291626E1,3.0097897E1,4.4473915E1,1.2535851E1,7.981373E0,0E0,0E0,0E0,0E0,0E0,0E0,0E0,0E0,0E0,0E0,0E0,0E0,0E0,0E0,0E0,0E0],"parents":[2147483647,0,0,1,1,2,2,3,3,4,4,5,5,6,6,7,7,8,8,9,9,10,10,11,11,12,12,13,13,14,14],"right_children":[2,4,6,8,10,12,14,16,18,20,22,24,26,28,30,-1,-1,-1,-1,-1,-1,-1,-1,-1,-1,-1,-1,-1,-1,-1,-1],"split_conditions":[5.159349E0,1.02E2,1E0,9E0,2.069E3,1.2E1,2.015E3,2.003E3,1.997E3,1.52E2,1.7917595E0,7E0,8E0,3.6E1,7.421245E0,1.9327601E-2,-8.662159E-2,-1.9585489E-1,-6.73217E-2,-1.4179724E-2,7.493318E-2,-6.015999E-1,-6.199506E-2,-7.345855E-2,1.0782539E-5,-4.210224E-2,2.4305148E-2,3.5169482E-2,8.7067604E-2,-2.8769588E-2,1.1201241E-1],"split_indices":[1,2,8,10,11,4,11,11,11,2,0,6,5,4,1,0,0,0,0,0,0,0,0,0,0,0,0,0,0,0,0],"split_type":[0,0,0,0,0,0,0,0,0,0,0,0,0,0,0,0,0,0,0,0,0,0,0,0,0,0,0,0,0,0,0],"sum_hessian":[2.4E3,7.78E2,1.622E3,4.12E2,3.66E2,1.215E3,4.07E2,2.52E2,1.6E2,3.63E2,3E0,2.24E2,9.91E2,3.56E2,5.1E1,1.22E2,1.3E2,4.4E1,1.16E2,3.24E2,3.9E1,1E0,2E0,1.22E2,1.02E2,1.13E2,8.78E2,3.01E2,5.5E1,4E0,4.7E1],"tree_param":{"num_deleted":"0","num_feature":"13","num_nodes":"31","size_leaf_vector":"1"}},{"base_weights":[-1.8424817E-3,-1.9947334E-1,2.8295672E-1,-7.165264E-1,-1.0596254E-1,1.9331618E-1,5.0652957E-1,-5.4736906E-1,-4.163347E0,2.89299E-1,-2.0745508E-1,-6.857699E-1,2.1870072E-1,3.081913E-1,6.5032005E-1,-2.5456262E-1,-4.120389E-2,1.4608097E-2,-6.031113E-1,-6.2933505E-2,3.7337873E-2,-2.7479663E-2,7.364637E-2,1.1236006E-2,-3.9063796E-1,3.3659123E-2,8.4754005E-3,3.4286126E-2,-1.9087672E-1,6.7691624E-2,-3.2018226E-2],"categories":[],"categories_nodes":[],"categories_segments":[],"categories_sizes":[],"default_left":[0,0,0,0,0,0,0,0,0,0,0,0,0,0,0,0,0,0,0,0,0,0,0,0,0,0,0,0,0,0,0],"id":20,"left_children":[1,3,5,7,9,11,13,15,17,19,21,23,25,27,29,-1,-1,-1,-1,-1,-1,-1,-1,-1,-1,-1,-1,-1,-1,-1,-1],"loss_changes":[1.3519699E2,6.848445E1,1.9622612E1,1.2424404E2,4.827957E1,1.5859871E1,7.8134613E0,5.5199383E1,8.137106E1,1.9235645E1,6.1034042E1,5.184823E1,1.0788338E1,9.877867E0,4.398224E0,0E0,0E0,0E0,0E0,0E0,0E0,0E0,0E0,0E0,0E0,0E0,0E0,0E0,0E0,0E0,0E0],"parents":[2147483647,0,0,1,1,2,2,3,3,4,4,5,5,6,6,7,7,8,8,9,9,10,10,11,11,12,12,13,13,14,14],"right_children":[2,4,6,8,10,12,14,16,18,20,22,24,26,28,30,-1,-1,-1,-1,-1,-1,-1,-1,-1,-1,-1,-1,-1,-1,-1,-1],"split_conditions":[1.6321037E1,1.194377E0,1.7875954E1,1.13376E0,1.991E3,1.78367E0,1E0,1E0,4E0,8.7E1,1.2E1,1.608163E0,2.006E3,5E0,6E0,-2.5456262E-1,-4.120389E-2,1.4608097E-2,-6.031113E-1,-6.2933505E-2,3.7337873E-2,-2.7479663E-2,7.364637E-2,1.1236006E-2,-3.9063796E-1,3.3659123E-2,8.4754005E-3,3.4286126E-2,-1.9087672E-1,6.7691624E-2,-3.2018226E-2],"split_indices":[0,1,0,1,11,1,7,12,12,2,10,1,11,12,12,0,0,0,0,0,0,0,0,0,0,0,0,0,0,0,0],"split_type":[0,0,0,0,0,0,0,0,0,0,0,0,0,0,0,0,0,0,0,0,0,0,0,0,0,0,0,0,0,0,0],"sum_hessian":[2.4E3,1.417E3,9.83E2,2.16E2,1.201E3,7.03E2,2.8E2,2.07E2,9E0,2.45E2,9.56E2,1.9E1,6.84E2,1.19E2,1.61E2,1.2E1,1.95E2,3E0,6E0,2E1,2.25E2,8.93E2,6.3E1,1.6E1,3E0,3.63E2,3.21E2,1.18E2,1E0,1.57E2,4E0],"tree_param":{"num_deleted":"0","num_feature":"13","num_nodes":"31","size_leaf_vector":"1"}},{"base_weights":[-2.2088643E-3,-2.7742198E-1,1.7320114E-1,-5.032424E-1,2.7196972E-2,7.8191005E-2,4.728133E-1,4.936464E-1,-6.2967205E-1,-8.285891E-1,1.4658819E-1,-2.5490162E-1,1.7130616E-1,2.9121387E-1,6.950961E-1,1.2259573E-1,1.0652016E-2,-1.327705E-1,-4.5488674E-2,-3.9278048E-1,-4.6581868E-2,1.1231431E-3,6.8978846E-2,-3.466027E-2,6.4129554E-2,9.959769E-3,5.049885E-2,-1.5717337E-1,3.7884854E-2,1.09985255E-1,5.916387E-2],"categories":[],"categories_nodes":[],"categories_segments":[],"categories_sizes":[],"default_left":[0,0,0,0,0,0,0,0,0,0,0,0,0,0,0,0,0,0,0,0,0,0,0,0,0,0,0,0,0,0,0],"id":21,"left_children":[1,3,5,7,9,11,13,15,17,19,21,23,25,27,29,-1,-1,-1,-1,-1,-1,-1,-1,-1,-1,-1,-1,-1,-1,-1,-1],"loss_changes":[1.1595664E2,6.433156E1,4.172294E1,6.7992386E1,4.0888626E1,3.4626472E1,1.4046921E1,1.7162714E1,5.759285E1,5.326124E1,2.5799818E1,2.0274738E1,2.0814787E1,3.2594162E1,5.9655457E0,0E0,0E0,0E0,0E0,0E0,0E0,0E0,0E0,0E0,0E0,0E0,0E0,0E0,0E0,0E0,0E0],"parents":[2147483647,0,0,1,1,2,2,3,3,4,4,5,5,6,6,7,7,8,8,9,9,10,10,11,11,12,12,13,13,14,14],"right_children":[2,4,6,8,10,12,14,16,18,20,22,24,26,28,30,-1,-1,-1,-1,-1,-1,-1,-1,-1,-1,-1,-1,-1,-1,-1,-1],"split_conditions":[1.4914124E1,1.03E2,1E0,1.987E3,2E0,9E0,2.006E3,1.982E3,1.077252E0,4.46454E-1,2.015E3,1.2E1,3.7E1,2.86317E0,6.363884E0,1.2259573E-1,1.0652016E-2,-1.327705E-1,-4.5488674E-2,-3.9278048E-1,-4.6581868E-2,1.1231431E-3,6.8978846E-2,-3.466027E-2,6.4129554E-2,9.959769E-3,5.049885E-2,-1.5717337E-1,3.7884854E-2,1.09985255E-1,5.916387E-2],"split_indices":[0,2,8,11,12,5,11,11,1,1,11,10,4,1,1,0,0,0,0,0,0,0,0,0,0,0,0,0,0,0,0],"split_type":[0,0,0,0,0,0,0,0,0,0,0,0,0,0,0,0,0,0,0,0,0,0,0,0,0,0,0,0,0,0,0],"sum_hessian":[2.4E3,9.34E2,1.466E3,5.36E2,3.98E2,1.114E3,3.52E2,6E1,4.76E2,4.8E1,3.5E2,2.43E2,8.71E2,1.95E2,1.57E2,2E1,4E1,9.4E1,3.82E2,4E0,4.4E1,2.81E2,6.9E1,2.21E2,2.2E1,7.18E2,1.53E2,8E0,1.87E2,3E1,1.27E2],"tree_param":{"num_deleted":"0","num_feature":"13","num_nodes":"31","size_leaf_vector":"1"}},{"base_weights":[-2.1025706E-3,-2.1540566E-1,1.8300502E-1,-4.5833424E-1,-3.4011386E-2,-3.6883324E-1,2.411606E-1,-3.765115E-1,-3.5975883E0,-1.0205845E-1,6.505653E-1,-2.0006053E-1,-1.5706594E0,3.8410164E-2,3.3938348E-1,-7.2833323E-3,-9.6240066E-2,-6.961357E-1,-2.004167E-2,-2.195914E-2,3.941703E-2,8.199126E-2,-2.7274403E-1,-4.1601893E-2,4.3953415E-2,-3.9342037E-1,-3.5353385E-2,-8.3558306E-2,1.6991995E-2,2.9986212E-2,7.2020315E-2],"categories":[],"categories_nodes":[],"categories_segments":[],"categories_sizes":[],"default_left":[0,0,0,0,0,0,0,0,0,0,0,0,0,0,0,0,0,0,0,0,0,0,0,0,0,0,0,0,0,0,0],"id":22,"left_children":[1,3,5,7,9,11,13,15,17,19,21,23,25,27,29,-1,-1,-1,-1,-1,-1,-1,-1,-1,-1,-1,-1,-1,-1,-1,-1],"loss_changes":[9.484055E1,4.9161903E1,4.1359863E1,1.2116878E2,2.9879793E1,2.4634535E1,2.3167717E1,8.2841446E1,1.3573242E2,3.4089005E1,3.541552E1,1.5238572E1,4.176007E1,4.3933613E1,1.1583649E1,0E0,0E0,0E0,0E0,0E0,0E0,0E0,0E0,0E0,0E0,0E0,0E0,0E0,0E0,0E0,0E0],"parents":[2147483647,0,0,1,1,2,2,3,3,4,4,5,5,6,6,7,7,8,8,9,9,10,10,11,11,12,12,13,13,14,14],"right_children":[2,4,6,8,10,12,14,16,18,20,22,24,26,28,30,-1,-1,-1,-1,-1,-1,-1,-1,-1,-1,-1,-1,-1,-1,-1,-1],"split_conditions":[6.816276E0,1.0108671E1,1E0,1.7917595E0,2.025E3,1.4178281E1,1E2,2.01E3,2.447359E0,1.22E2,1E0,1E1,1.7917595E0,8E0,1.891196E1,-7.2833323E-3,-9.6240066E-2,-6.961357E-1,-2.004167E-2,-2.195914E-2,3.941703E-2,8.199126E-2,-2.7274403E-1,-4.1601893E-2,4.3953415E-2,-3.9342037E-1,-3.5353385E-2,-8.3558306E-2,1.6991995E-2,2.9986212E-2,7.2020315E-2],"split_indices":[1,0,9,0,11,1,2,11,1,2,7,10,0,5,1,0,0,0,0,0,0,0,0,0,0,0,0,0,0,0,0],"split_type":[0,0,0,0,0,0,0,0,0,0,0,0,0,0,0,0,0,0,0,0,0,0,0,0,0,0,0,0,0,0,0],"sum_hessian":[2.4E3,1.115E3,1.285E3,4.76E2,6.39E2,1.22E2,1.163E3,4.65E2,1.1E1,5.82E2,5.7E1,1.08E2,1.4E1,3.8E2,7.83E2,3.07E2,1.58E2,5E0,6E0,4.71E2,1.11E2,5.5E1,2E0,8.1E1,2.7E1,4E0,1E1,4.9E1,3.31E2,7.11E2,7.2E1],"tree_param":{"num_deleted":"0","num_feature":"13","num_nodes":"31","size_leaf_vector":"1"}},{"base_weights":[-2.468554E-3,-3.5284528E-1,9.3630776E-2,-6.0260856E-1,-3.1109774E-2,-6.9880426E-2,2.2712198E-1,6.7603564E-1,-7.3061156E-1,-4.1491142E-1,2.7436325E-1,-9.814846E-1,-1.0315434E-2,1.555726E-1,4.1380495E-1,1.4031366E-1,3.5139356E-2,-9.585626E-2,-1.7182425E-2,-1.12126935E-2,-5.190311E-1,3.5666507E-2,-1.8051335E-1,-2.3580037E-1,-4.621833E-2,2.2184065E-2,-2.1200066E-2,5.297604E-2,6.9108456E-3,-1.1853558E-1,4.291863E-2],"categories":[],"categories_nodes":[],"categories_segments":[],"categories_sizes":[],"default_left":[0,0,0,0,0,0,0,0,0,0,0,0,0,0,0,0,0,0,0,0,0,0,0,0,0,0,0,0,0,0,0],"id":23,"left_children":[1,3,5,7,9,11,13,15,17,19,21,23,25,27,29,-1,-1,-1,-1,-1,-1,-1,-1,-1,-1,-1,-1,-1,-1,-1,-1],"loss_changes":[8.087703E1,4.15262E1,4.1160343E1,4.8121964E1,2.6727554E1,4.603602E1,1.3800243E1,5.880231E0,3.358998E1,1.4545563E2,2.2379408E1,3.6081238E1,3.7364525E1,2.4293463E1,7.568142E0,0E0,0E0,0E0,0E0,0E0,0E0,0E0,0E0,0E0,0E0,0E0,0E0,0E0,0E0,0E0,0E0],"parents":[2147483647,0,0,1,1,2,2,3,3,4,4,5,5,6,6,7,7,8,8,9,9,10,10,11,11,12,12,13,13,14,14],"right_children":[2,4,6,8,10,12,14,16,18,20,22,24,26,28,30,-1,-1,-1,-1,-1,-1,-1,-1,-1,-1,-1,-1,-1,-1,-1,-1],"split_conditions":[3.172765E0,1.02E2,1.6108046E1,1.987E3,1.180564E1,3E0,3E1,3E0,1.4E1,1.7917595E0,5E0,3E0,2.007E3,9.4E1,8.5E1,1.4031366E-1,3.5139356E-2,-9.585626E-2,-1.7182425E-2,-1.12126935E-2,-5.190311E-1,3.5666507E-2,-1.8051335E-1,-2.3580037E-1,-4.621833E-2,2.2184065E-2,-2.1200066E-2,5.297604E-2,6.9108456E-3,-1.1853558E-1,4.291863E-2],"split_indices":[1,2,0,11,0,5,4,6,4,0,3,10,11,2,2,0,0,0,0,0,0,0,0,0,0,0,0,0,0,0,0],"split_type":[0,0,0,0,0,0,0,0,0,0,0,0,0,0,0,0,0,0,0,0,0,0,0,0,0,0,0,0,0,0,0],"sum_hessian":[2.4E3,5.16E2,1.884E3,2.9E2,2.26E2,8.47E2,1.037E3,2.6E1,2.64E2,1E2,1.26E2,5.1E1,7.96E2,7.51E2,2.86E2,7E0,1.9E1,1.87E2,7.7E1,9.5E1,5E0,1.22E2,4E0,1.3E1,3.8E1,3.7E2,4.26E2,1.4E2,6.11E2,2E0,2.84E2],"tree_param":{"num_deleted":"0","num_feature":"13","num_nodes":"31","size_leaf_vector":"1"}},{"base_weights":[-2.6004629E-3,-2.252395E-1,1.2612815E-1,-3.9875755E-1,5.1520832E-2,-2.3498388E-1,2.0105696E-1,4.31344E-1,-5.6758106E-1,-1.5904665E0,1.0609762E-1,-1.1354024E0,-9.115104E-2,1.599126E-1,5.770346E-1,1.3694492E-1,2.4540912E-2,-7.26434E-2,3.2009136E-2,2.195034E-2,-3.8063312E-1,2.9707143E-1,7.957339E-3,-6.833111E-2,-4.581306E-1,4.179765E-3,-1.2174169E-1,2.9720476E-2,-3.7989428E-3,-9.247432E-2,6.479054E-2],"categories":[],"categories_nodes":[],"categories_segments":[],"categories_sizes":[],"default_left":[0,0,0,0,0,0,0,0,0,0,0,0,0,0,0,0,0,0,0,0,0,0,0,0,0,0,0,0,0,0,0],"id":24,"left_children":[1,3,5,7,9,11,13,15,17,19,21,23,25,27,29,-1,-1,-1,-1,-1,-1,-1,-1,-1,-1,-1,-1,-1,-1,-1,-1],"loss_changes":[6.88411E1,4.228071E1,4.122905E1,7.606093E1,3.0637638E1,3.3828064E1,1.9414577E1,1.5711157E1,6.3686752E1,4.4952633E1,2.4837587E1,5.295263E1,3.4040855E1,3.0931202E1,1.3796753E1,0E0,0E0,0E0,0E0,0E0,0E0,0E0,0E0,0E0,0E0,0E0,0E0,0E0,0E0,0E0,0E0],"parents":[2147483647,0,0,1,1,2,2,3,3,4,4,5,5,6,6,7,7,8,8,9,9,10,10,11,11,12,12,13,13,14,14],"right_children":[2,4,6,8,10,12,14,16,18,20,22,24,26,28,30,-1,-1,-1,-1,-1,-1,-1,-1,-1,-1,-1,-1,-1,-1,-1,-1],"split_conditions":[1.4E1,6E0,9E0,1.991E3,1.981E3,1E0,1.2E1,1.982E3,1.1E1,1.08E2,5.3E1,2.017E3,1.2E1,8E0,8.9E1,1.3694492E-1,2.4540912E-2,-7.26434E-2,3.2009136E-2,2.195034E-2,-3.8063312E-1,2.9707143E-1,7.957339E-3,-6.833111E-2,-4.581306E-1,4.179765E-3,-1.2174169E-1,2.9720476E-2,-3.7989428E-3,-9.247432E-2,6.479054E-2],"split_indices":[4,6,5,11,11,6,10,11,10,2,2,11,6,10,2,0,0,0,0,0,0,0,0,0,0,0,0,0,0,0,0],"split_type":[0,0,0,0,0,0,0,0,0,0,0,0,0,0,0,0,0,0,0,0,0,0,0,0,0,0,0,0,0,0,0],"sum_hessian":[2.4E3,8.79E2,1.521E3,5.4E2,3.39E2,2.61E2,1.26E3,9.1E1,4.49E2,1E1,3.29E2,3.5E1,2.26E2,1.137E3,1.23E2,1.4E1,7.7E1,3.81E2,6.8E1,6E0,4E0,2E0,3.27E2,3.2E1,3E0,2.03E2,2.3E1,6.71E2,4.66E2,5E0,1.18E2],"tree_param":{"num_deleted":"0","num_feature":"13","num_nodes":"31","size_leaf_vector":"1"}},{"base_weights":[-2.5813477E-3,-8.3516784E-2,3.1732753E-1,-2.7961934E-1,7.83333E-2,1.040528E0,2.6049972E-1,-5.875517E-1,-9.479864E-2,-3.781561E-1,1.326402E-1,-4.9821234E-1,1.2003541E0,1.7019966E-1,7.846713E-1,1.808442E-2,-7.1811095E-2,-5.4056913E-2,6.1400956E-3,-2.052075E-1,-1.1808532E-2,4.2605232E-2,3.7538335E-3,-9.104633E-2,3.6927033E-2,1.7522119E-1,6.737863E-2,-9.965077E-3,3.4027293E-2,1.9835398E-1,6.317254E-2],"categories":[],"categories_nodes":[],"categories_segments":[],"categories_sizes":[],"default_left":[0,0,0,0,0,0,0,0,0,0,0,0,0,0,0,0,0,0,0,0,0,0,0,0,0,0,0,0,0,0,0],"id":25,"left_children":[1,3,5,7,9,11,13,15,17,19,21,23,25,27,29,-1,-1,-1,-1,-1,-1,-1,-1,-1,-1,-1,-1,-1,-1,-1,-1],"loss_changes":[6.219311E1,6.0865982E1,1.9661427E1,4.928724E1,2.6105E1,9.205612E0,2.1213507E1,3.2734253E1,3.784183E1,4.8515465E1,2.62138E1,1.7666894E0,8.118282E0,1.7749126E1,1.0848835E1,0E0,0E0,0E0,0E0,0E0,0E0,0E0,0E0,0E0,0E0,0E0,0E0,0E0,0E0,0E0,0E0],"parents":[2147483647,0,0,1,1,2,2,3,3,4,4,5,5,6,6,7,7,8,8,9,9,10,10,11,11,12,12,13,13,14,14],"right_children":[2,4,6,8,10,12,14,16,18,20,22,24,26,28,30,-1,-1,-1,-1,-1,-1,-1,-1,-1,-1,-1,-1,-1,-1,-1,-1],"split_conditions":[1E0,1.03E2,8.4E1,9E0,1.698895E0,2E0,1.29E2,1.991E3,1.2E1,2E0,1.997E3,1.7917595E0,3E0,1.564006E1,1.7917595E0,1.808442E-2,-7.1811095E-2,-5.4056913E-2,6.1400956E-3,-2.052075E-1,-1.1808532E-2,4.2605232E-2,3.7538335E-3,-9.104633E-2,3.6927033E-2,1.7522119E-1,6.737863E-2,-9.965077E-3,3.4027293E-2,1.9835398E-1,6.317254E-2],"split_indices":[8,2,2,5,1,10,2,11,4,12,11,0,3,0,0,0,0,0,0,0,0,0,0,0,0,0,0,0,0,0,0],"split_type":[0,0,0,0,0,0,0,0,0,0,0,0,0,0,0,0,0,0,0,0,0,0,0,0,0,0,0,0,0,0,0],"sum_hessian":[2.4E3,1.916E3,4.84E2,8.66E2,1.05E3,3.4E1,4.5E2,3.24E2,5.42E2,1.11E2,9.39E2,3E0,3.1E1,3.85E2,6.5E1,4.7E1,2.77E2,1.4E2,4.02E2,1.4E1,9.7E1,2.29E2,7.1E2,2E0,1E0,1.4E1,1.7E1,1.49E2,2.36E2,6E0,5.9E1],"tree_param":{"num_deleted":"0","num_feature":"13","num_nodes":"31","size_leaf_vector":"1"}},{"base_weights":[-2.2390366E-3,-9.925759E-2,2.2441018E-1,-1.6985919E-1,2.50359E-1,3.4229234E-1,8.56133E-2,-5.224545E-1,-8.124387E-2,-1.622292E0,3.1073537E-1,2.3932022E-1,4.8063433E-1,-6.103204E-3,3.7941557E-1,-6.8386555E-2,4.9665675E-2,8.247543E-2,-1.1382491E-2,-3.8992697E-1,9.791439E-2,1.5625776E-1,2.117214E-2,-1.7514702E-2,3.326262E-2,-4.93577E-2,5.0172206E-2,-8.409933E-3,3.6806237E-2,5.2043885E-2,-1.6551882E-2],"categories":[],"categories_nodes":[],"categories_segments":[],"categories_sizes":[],"default_left":[0,0,0,0,0,0,0,0,0,0,0,0,0,0,0,0,0,0,0,0,0,0,0,0,0,0,0,0,0,0,0],"id":26,"left_children":[1,3,5,7,9,11,13,15,17,19,21,23,25,27,29,-1,-1,-1,-1,-1,-1,-1,-1,-1,-1,-1,-1,-1,-1,-1,-1],"loss_changes":[5.2818295E1,4.1560154E1,1.1751099E1,4.3701035E1,3.2501175E1,5.426426E0,8.948559E0,4.6562973E1,3.3154446E1,5.712865E1,3.3755386E1,8.759521E0,3.6373787E0,7.443554E0,6.1571703E0,0E0,0E0,0E0,0E0,0E0,0E0,0E0,0E0,0E0,0E0,0E0,0E0,0E0,0E0,0E0,0E0],"parents":[2147483647,0,0,1,1,2,2,3,3,4,4,5,5,6,6,7,7,8,8,9,9,10,10,11,11,12,12,13,13,14,14],"right_children":[2,4,6,8,10,12,14,16,18,20,22,24,26,28,30,-1,-1,-1,-1,-1,-1,-1,-1,-1,-1,-1,-1,-1,-1,-1,-1],"split_conditions":[1.6860033E1,1E0,4E0,9.1E1,1E0,9E0,6.6E1,1.6040134E1,2E0,4.896196E0,1E0,1.4E1,1.6951004E1,1.1E1,1.31E2,-6.8386555E-2,4.9665675E-2,8.247543E-2,-1.1382491E-2,-3.8992697E-1,9.791439E-2,1.5625776E-1,2.117214E-2,-1.7514702E-2,3.326262E-2,-4.93577E-2,5.0172206E-2,-8.409933E-3,3.6806237E-2,5.2043885E-2,-1.6551882E-2],"split_indices":[0,8,12,2,12,6,5,0,5,1,6,4,0,10,2,0,0,0,0,0,0,0,0,0,0,0,0,0,0,0,0],"split_type":[0,0,0,0,0,0,0,0,0,0,0,0,0,0,0,0,0,0,0,0,0,0,0,0,0,0,0,0,0,0,0],"sum_hessian":[2.4E3,1.681E3,7.19E2,1.399E3,2.82E2,3.88E2,3.31E2,2.8E2,1.119E3,8E0,2.74E2,2.24E2,1.64E2,2.53E2,7.8E1,2.42E2,3.8E1,3.8E1,1.081E3,4E0,4E0,1.9E1,2.55E2,4.1E1,1.83E2,3E0,1.61E2,2.1E2,4.3E1,6.2E1,1.6E1],"tree_param":{"num_deleted":"0","num_feature":"13","num_nodes":"31","size_leaf_vector":"1"}},{"base_weights":[-2.0075971E-3,-1.2636414E-1,1.5358564E-1,-3.9389464E-1,-8.191181E-3,2.8542957E-1,1.458338E-1,1.2287931E0,-4.5879084E-1,-7.905222E-2,4.830609E-1,-2.925467E-1,1.9766083E-1,1.5467867E-1,-1.1188412E-2,-5.8968693E-2,3.945157E-2,1.1479174E-2,-2.9277882E-2,9.1721855E-2,1.7845191E-2,1.687118E-2,-5.0168462E-2,1.0638784E-2,3.7288103E-2],"categories":[],"categories_nodes":[],"categories_segments":[],"categories_sizes":[],"default_left":[0,0,0,0,0,0,0,0,0,0,0,0,0,0,0,0,0,0,0,0,0,0,0,0,0],"id":27,"left_children":[1,3,5,7,9,-1,11,13,15,17,19,21,23,-1,-1,-1,-1,-1,-1,-1,-1,-1,-1,-1,-1],"loss_changes":[4.6476448E1,4.220262E1,2.1921911E1,4.3634033E1,3.230764E1,0E0,2.4254587E1,6.9942875E0,4.4240265E1,3.3633026E1,1.5309374E1,1.0985371E1,1.5201538E1,0E0,0E0,0E0,0E0,0E0,0E0,0E0,0E0,0E0,0E0,0E0,0E0],"parents":[2147483647,0,0,1,1,2,2,3,3,4,4,6,6,7,7,8,8,9,9,10,10,11,11,12,12],"right_children":[2,4,6,8,10,-1,12,14,16,18,20,22,24,-1,-1,-1,-1,-1,-1,-1,-1,-1,-1,-1,-1],"split_conditions":[7E0,2.958988E0,5.3E1,1.982E3,1.28E2,2.8542957E-1,1E0,1.6108046E1,2.015E3,2.008E3,1.6185755E1,4.342418E0,1.1333125E1,1.5467867E-1,-1.1188412E-2,-5.8968693E-2,3.945157E-2,1.1479174E-2,-2.9277882E-2,9.1721855E-2,1.7845191E-2,1.687118E-2,-5.0168462E-2,1.0638784E-2,3.7288103E-2],"split_indices":[6,1,2,11,2,0,9,0,11,11,0,1,1,0,0,0,0,0,0,0,0,0,0,0,0],"split_type":[0,0,0,0,0,0,0,0,0,0,0,0,0,0,0,0,0,0,0,0,0,0,0,0,0],"sum_hessian":[2.4E3,1.334E3,1.066E3,4.08E2,9.26E2,2E0,1.064E3,1.5E1,3.93E2,8.1E2,1.16E2,1.12E2,9.52E2,1.2E1,3E0,3.41E2,5.2E1,4.25E2,3.85E2,4.7E1,6.9E1,3.5E1,7.7E1,6.27E2,3.25E2],"tree_param":{"num_deleted":"0","num_feature":"13","num_nodes":"25","size_leaf_vector":"1"}},{"base_weights":[-1.59215E-3,-1.6399872E-1,9.99405E-2,-3.1457633E-1,4.0253926E-2,3.6393754E-2,3.0011764E-1,-1.2366789E-1,-6.690422E-1,-6.738531E-1,1.3920446E-1,-1.469345E-2,3.373656E-1,1.4522901E-1,4.932994E-1,-7.7343725E-2,1.00089405E-2,-9.938233E-2,1.2785075E-3,-4.5315668E-2,-5.523293E-1,1.3190516E-3,6.35871E-2,-6.2738764E-3,3.575729E-2,1.0917922E-1,2.7018076E-2,-1.2789108E-1,2.1941938E-2,8.393282E-2,3.4368645E-2],"categories":[],"categories_nodes":[],"categories_segments":[],"categories_sizes":[],"default_left":[0,0,0,0,0,0,0,0,0,0,0,0,0,0,0,0,0,0,0,0,0,0,0,0,0,0,0,0,0,0,0],"id":28,"left_children":[1,3,5,7,9,11,13,15,17,19,21,23,25,27,29,-1,-1,-1,-1,-1,-1,-1,-1,-1,-1,-1,-1,-1,-1,-1,-1],"loss_changes":[3.960785E1,2.8431095E1,1.8790133E1,3.5917988E1,2.7863684E1,1.7271994E1,1.0580467E1,5.052796E1,4.120141E1,4.8869278E1,2.164668E1,1.7210543E1,7.9668427E0,2.130645E1,7.8912582E0,0E0,0E0,0E0,0E0,0E0,0E0,0E0,0E0,0E0,0E0,0E0,0E0,0E0,0E0,0E0,0E0],"parents":[2147483647,0,0,1,1,2,2,3,3,4,4,5,5,6,6,7,7,8,8,9,9,10,10,11,11,12,12,13,13,14,14],"right_children":[2,4,6,8,10,12,14,16,18,20,22,24,26,28,30,-1,-1,-1,-1,-1,-1,-1,-1,-1,-1,-1,-1,-1,-1,-1,-1],"split_conditions":[1.4808763E1,1.03E2,1E0,9E0,2E0,6.1E1,2.006E3,3E0,1.1E1,6E1,2.015E3,1.2E1,1.6040134E1,2.86317E0,1.6410765E1,-7.7343725E-2,1.00089405E-2,-9.938233E-2,1.2785075E-3,-4.5315668E-2,-5.523293E-1,1.3190516E-3,6.35871E-2,-6.2738764E-3,3.575729E-2,1.0917922E-1,2.7018076E-2,-1.2789108E-1,2.1941938E-2,8.393282E-2,3.4368645E-2],"split_indices":[0,2,8,10,12,5,11,10,10,4,11,10,0,1,0,0,0,0,0,0,0,0,0,0,0,0,0,0,0,0,0],"split_type":[0,0,0,0,0,0,0,0,0,0,0,0,0,0,0,0,0,0,0,0,0,0,0,0,0,0,0,0,0,0,0],"sum_hessian":[2.4E3,9.23E2,1.477E3,5.31E2,3.92E2,1.122E3,3.55E2,3.46E2,1.85E2,4.7E1,3.45E2,9.6E2,1.62E2,1.98E2,1.57E2,8.8E1,2.58E2,1.25E2,6E1,4.6E1,1E0,2.76E2,6.9E1,8.51E2,1.09E2,1.2E1,1.5E2,9E0,1.89E2,4.6E1,1.11E2],"tree_param":{"num_deleted":"0","num_feature":"13","num_nodes":"31","size_leaf_vector":"1"}},{"base_weights":[-1.6496389E-3,-1.0955616E-1,1.3336147E-1,-1.7731158E-1,2.5426367E-1,2.686454E-1,1.2604444E-1,-3.676641E-2,-5.406425E-1,-2.0005407E0,3.30388E-1,-2.481958E-1,1.7028694E-1,-2.6729587E-1,-7.2477804E-4,-1.1599713E-1,-3.482319E-2,-3.6332232E-1,-6.2082328E-2,1.1484265E-1,1.7716477E-2,-7.637699E-2,-6.1107487E-3,1.4494024E-2,6.78506E-2],"categories":[],"categories_nodes":[],"categories_segments":[],"categories_sizes":[],"default_left":[0,0,0,0,0,0,0,0,0,0,0,0,0,0,0,0,0,0,0,0,0,0,0,0,0],"id":29,"left_children":[1,3,5,7,9,-1,11,13,15,17,19,21,23,-1,-1,-1,-1,-1,-1,-1,-1,-1,-1,-1,-1],"loss_changes":[3.499377E1,3.2953854E1,1.959408E1,5.7478657E1,3.670652E1,0E0,1.7675816E1,6.324567E1,3.7014008E1,1.3512892E1,2.5366413E1,1.0853069E1,1.2177891E1,0E0,0E0,0E0,0E0,0E0,0E0,0E0,0E0,0E0,0E0,0E0,0E0],"parents":[2147483647,0,0,1,1,2,2,3,3,4,4,6,6,7,7,8,8,9,9,10,10,11,11,12,12],"right_children":[2,4,6,8,10,-1,12,14,16,18,20,22,24,-1,-1,-1,-1,-1,-1,-1,-1,-1,-1,-1,-1],"split_conditions":[7E0,1.1E1,5.3E1,9E0,1E0,2.686454E-1,1E0,6.2E1,1.78367E0,1.7917595E0,3E0,2E0,2.056E3,-2.6729587E-1,-7.2477804E-4,-1.1599713E-1,-3.482319E-2,-3.6332232E-1,-6.2082328E-2,1.1484265E-1,1.7716477E-2,-7.637699E-2,-6.1107487E-3,1.4494024E-2,6.78506E-2],"split_indices":[6,10,2,10,12,0,9,2,1,0,5,3,11,0,0,0,0,0,0,0,0,0,0,0,0],"split_type":[0,0,0,0,0,0,0,0,0,0,0,0,0,0,0,0,0,0,0,0,0,0,0,0,0],"sum_hessian":[2.4E3,1.334E3,1.066E3,1.125E3,2.09E2,2E0,1.064E3,8.12E2,3.13E2,6E0,2.03E2,1.12E2,9.52E2,8E0,8.04E2,7.3E1,2.4E2,2E0,4E0,3.1E1,1.72E2,2.9E1,8.3E1,9.08E2,4.4E1],"tree_param":{"num_deleted":"0","num_feature":"13","num_nodes":"25","size_leaf_vector":"1"}},{"base_weights":[-1.6692496E-3,-7.495035E-2,1.7687064E-1,1.89272E-1,-1.4027408E-1,3.666942E-1,9.4043866E-2,3.3312428E-1,-8.5296206E-2,-1.751286E-1,6.082549E-1,-1.5408516E-1,3.90542E-1,-5.1527866E-3,2.4439938E-1,-1.5029383E-2,4.638154E-2,-7.543116E-2,1.23789655E-2,-3.0897928E-2,4.2663245E-3,8.363036E-2,-2.170731E-2,-5.0200462E-2,1.6152859E-2,2.5075698E-2,5.0187845E-2,-1.2719102E-1,1.2217702E-3,1.9824918E-2,5.484448E-2],"categories":[],"categories_nodes":[],"categories_segments":[],"categories_sizes":[],"default_left":[0,0,0,0,0,0,0,0,0,0,0,0,0,0,0,0,0,0,0,0,0,0,0,0,0,0,0,0,0,0,0],"id":30,"left_children":[1,3,5,7,9,11,13,15,17,19,21,23,25,27,29,-1,-1,-1,-1,-1,-1,-1,-1,-1,-1,-1,-1,-1,-1,-1,-1],"loss_changes":[3.1426983E1,2.9420311E1,1.0955523E1,1.337849E1,3.5744934E1,2.693098E0,7.279664E0,1.4095325E1,1.645953E1,3.8085148E1,1.1662653E1,1.1791698E0,3.033474E0,6.5067773E0,2.613433E0,0E0,0E0,0E0,0E0,0E0,0E0,0E0,0E0,0E0,0E0,0E0,0E0,0E0,0E0,0E0,0E0],"parents":[2147483647,0,0,1,1,2,2,3,3,4,4,5,5,6,6,7,7,8,8,9,9,10,10,11,11,12,12,13,13,14,14],"right_children":[2,4,6,8,10,12,14,16,18,20,22,24,26,28,30,-1,-1,-1,-1,-1,-1,-1,-1,-1,-1,-1,-1,-1,-1,-1,-1],"split_conditions":[1.6951004E1,1.991E3,3E0,9E0,1.52E2,2E0,1E0,9.1E1,1.78367E0,7E0,1E0,1.15E2,2.2E1,1E0,1.8603003E1,-1.5029383E-2,4.638154E-2,-7.543116E-2,1.23789655E-2,-3.0897928E-2,4.2663245E-3,8.363036E-2,-2.170731E-2,-5.0200462E-2,1.6152859E-2,2.5075698E-2,5.0187845E-2,-1.2719102E-1,1.2217702E-3,1.9824918E-2,5.484448E-2],"split_indices":[0,11,12,10,2,10,7,2,1,6,7,2,4,6,0,0,0,0,0,0,0,0,0,0,0,0,0,0,0,0,0],"split_type":[0,0,0,0,0,0,0,0,0,0,0,0,0,0,0,0,0,0,0,0,0,0,0,0,0,0,0,0,0,0,0],"sum_hessian":[2.4E3,1.702E3,6.98E2,3.37E2,1.365E3,2.11E2,4.87E2,2.21E2,1.16E2,1.305E3,6E1,9E0,2.02E2,2.94E2,1.93E2,4.7E1,1.74E2,2.7E1,8.9E1,8.08E2,4.97E2,4.7E1,1.3E1,4E0,5E0,9.1E1,1.11E2,3E0,2.91E2,1.69E2,2.4E1],"tree_param":{"num_deleted":"0","num_feature":"13","num_nodes":"31","size_leaf_vector":"1"}},{"base_weights":[-1.5052097E-3,-5.654109E-2,2.1603146E-1,-2.4617232E-1,2.6927711E-2,9.0468657E-1,1.6210915E-1,6.583892E-1,-3.226301E-1,-2.4138589E-1,9.473733E-2,1.9544578E-1,1.2216117E0,8.855023E-2,5.898612E-1,-2.1919148E-1,1.2261852E-1,-2.1216124E-2,-1.4274977E-1,-3.259807E-2,1.4495565E-1,4.0149417E-2,4.1195634E-3,-1.0057541E-1,5.362612E-2,1.3114317E-1,-4.2212296E-2,-8.133494E-2,1.24679115E-2,1.7898796E-1,4.400281E-2],"categories":[],"categories_nodes":[],"categories_segments":[],"categories_sizes":[],"default_left":[0,0,0,0,0,0,0,0,0,0,0,0,0,0,0,0,0,0,0,0,0,0,0,0,0,0,0,0,0,0,0],"id":31,"left_children":[1,3,5,7,9,11,13,15,17,19,21,23,25,27,29,-1,-1,-1,-1,-1,-1,-1,-1,-1,-1,-1,-1,-1,-1,-1,-1],"loss_changes":[2.8757761E1,3.0349463E1,1.786327E1,4.0740627E1,2.4257599E1,7.6284103E0,1.4138476E1,7.713369E1,6.572806E1,3.895162E1,1.7458893E1,5.451996E0,4.0969467E0,1.2679074E1,1.1079369E1,0E0,0E0,0E0,0E0,0E0,0E0,0E0,0E0,0E0,0E0,0E0,0E0,0E0,0E0,0E0,0E0],"parents":[2147483647,0,0,1,1,2,2,3,3,4,4,5,5,6,6,7,7,8,8,9,9,10,10,11,11,12,12,13,13,14,14],"right_children":[2,4,6,8,10,12,14,16,18,20,22,24,26,28,30,-1,-1,-1,-1,-1,-1,-1,-1,-1,-1,-1,-1,-1,-1,-1,-1],"split_conditions":[1E0,1.2E1,8.4E1,2E0,9E0,1.998E3,1.29E2,8.9E1,5E0,2.024E3,1.2E1,8E0,1.5E1,1E0,1.7917595E0,-2.1919148E-1,1.2261852E-1,-2.1216124E-2,-1.4274977E-1,-3.259807E-2,1.4495565E-1,4.0149417E-2,4.1195634E-3,-1.0057541E-1,5.362612E-2,1.3114317E-1,-4.2212296E-2,-8.133494E-2,1.24679115E-2,1.7898796E-1,4.400281E-2],"split_indices":[8,4,2,5,5,11,2,2,12,11,5,4,6,12,0,0,0,0,0,0,0,0,0,0,0,0,0,0,0,0,0],"split_type":[0,0,0,0,0,0,0,0,0,0,0,0,0,0,0,0,0,0,0,0,0,0,0,0,0,0,0,0,0,0,0],"sum_hessian":[2.4E3,1.916E3,4.84E2,5.85E2,1.331E3,3.4E1,4.5E2,4.5E1,5.4E2,2.68E2,1.063E3,1.1E1,2.3E1,3.85E2,6.5E1,7E0,3.8E1,4.92E2,4.8E1,2.56E2,1.2E1,1.57E2,9.06E2,2E0,9E0,2.2E1,1E0,1.4E1,3.71E2,6E0,5.9E1],"tree_param":{"num_deleted":"0","num_feature":"13","num_nodes":"31","size_leaf_vector":"1"}},{"base_weights":[-1.3164231E-3,-4.801339E-1,2.0571759E-2,-3.1678338E0,-2.558305E-1,1.7104373E0,1.094864E-2,-4.7246065E0,1.001656E-1,-6.3614255E-1,4.1682196E-1,2.5792274E0,8.4503996E-1,-1.1999339E-1,9.214164E-2,-5.0980663E-1,-1.4286537E-1,-3.805434E-2,-2.345819E-1,-1.7670606E-1,7.450279E-2,2.8222263E-1,6.821165E-2,3.632803E-2,9.4507985E-2,6.569743E-3,-4.909641E-2,-1.360513E-2,1.4235518E-2],"categories":[],"categories_nodes":[],"categories_segments":[],"categories_sizes":[],"default_left":[0,0,0,0,0,0,0,0,0,0,0,0,0,0,0,0,0,0,0,0,0,0,0,0,0,0,0,0,0],"id":32,"left_children":[1,3,5,7,9,11,13,15,-1,17,19,21,23,25,27,-1,-1,-1,-1,-1,-1,-1,-1,-1,-1,-1,-1,-1,-1],"loss_changes":[2.5173424E1,6.248989E1,3.7334568E1,5.666001E1,2.5335304E1,7.594486E0,2.4304209E1,1.0206604E-1,0E0,2.6637802E1,2.711999E1,8.4088516E-1,4.2232513E-2,6.0307373E1,1.6187134E1,0E0,0E0,0E0,0E0,0E0,0E0,0E0,0E0,0E0,0E0,0E0,0E0,0E0,0E0],"parents":[2147483647,0,0,1,1,2,2,3,3,4,4,5,5,6,6,7,7,9,9,10,10,11,11,12,12,13,13,14,14],"right_children":[2,4,6,8,10,12,14,16,-1,18,20,22,24,26,28,-1,-1,-1,-1,-1,-1,-1,-1,-1,-1,-1,-1,-1,-1],"split_conditions":[5.58002E-1,6.2E1,6.6E1,7E0,2.01E3,1.7917595E0,1E2,2.40888E-1,1.001656E-1,2.007E3,2E0,1.4E1,5E0,9E0,1E0,-5.0980663E-1,-1.4286537E-1,-3.805434E-2,-2.345819E-1,-1.7670606E-1,7.450279E-2,2.8222263E-1,6.821165E-2,3.632803E-2,9.4507985E-2,6.569743E-3,-4.909641E-2,-1.360513E-2,1.4235518E-2],"split_indices":[1,2,2,10,11,0,2,1,0,11,12,4,10,10,9,0,0,0,0,0,0,0,0,0,0,0,0,0,0],"split_type":[0,0,0,0,0,0,0,0,0,0,0,0,0,0,0,0,0,0,0,0,0,0,0,0,0,0,0,0,0],"sum_hessian":[2.4E3,1.04E2,2.296E3,7E0,9.7E1,1.2E1,2.284E3,5E0,2E0,6.2E1,3.5E1,5E0,7E0,8.74E2,1.41E3,4E0,1E0,5.5E1,7E0,4E0,3.1E1,4E0,1E0,2E0,5E0,5.83E2,2.91E2,2.54E2,1.156E3],"tree_param":{"num_deleted":"0","num_feature":"13","num_nodes":"29","size_leaf_vector":"1"}},{"base_weights":[-1.3882517E-3,-3.2307737E-2,3.1637767E-1,-8.218373E-2,1.7672798E-1,1.0570699E0,2.2552793E-1,-3.2056677E-1,-3.127886E-2,8.0574906E-1,1.2129497E-1,-3.6679062E-1,1.5811849E0,-1.0772669E0,2.59156E-1,-5.034819E-2,2.9360263E-2,6.854288E-2,-5.4589035E-3,2.116709E-1,6.10601E-2,5.0423876E-3,5.9000093E-2,2.9568499E-2,-1.3486533E-1,2.1288686E-1,4.946555E-2,5.172984E-2,-2.3127432E-1,1.0126418E-1,2.0630946E-2],"categories":[],"categories_nodes":[],"categories_segments":[],"categories_sizes":[],"default_left":[0,0,0,0,0,0,0,0,0,0,0,0,0,0,0,0,0,0,0,0,0,0,0,0,0,0,0,0,0,0,0],"id":33,"left_children":[1,3,5,7,9,11,13,15,17,19,21,23,25,27,29,-1,-1,-1,-1,-1,-1,-1,-1,-1,-1,-1,-1,-1,-1,-1,-1],"loss_changes":[2.3600426E1,2.2836742E1,1.4094734E1,2.1444405E1,1.4616788E1,1.7744091E1,8.646978E0,3.5085835E1,2.439561E1,7.405796E0,1.2891937E1,4.9519963E0,9.06321E0,1.1046617E1,7.2372513E0,0E0,0E0,0E0,0E0,0E0,0E0,0E0,0E0,0E0,0E0,0E0,0E0,0E0,0E0,0E0,0E0],"parents":[2147483647,0,0,1,1,2,2,3,3,4,4,5,5,6,6,7,7,8,8,9,9,10,10,11,11,12,12,13,13,14,14],"right_children":[2,4,6,8,10,12,14,16,18,20,22,24,26,28,30,-1,-1,-1,-1,-1,-1,-1,-1,-1,-1,-1,-1,-1,-1,-1,-1],"split_conditions":[6.7E1,1E0,1.6040134E1,9.1E1,8.4E1,6.636872E0,1.6185755E1,1.6040134E1,2E0,2E0,1.29E2,6E0,8.3E1,9.8E1,1.6588099E1,-5.034819E-2,2.9360263E-2,6.854288E-2,-5.4589035E-3,2.116709E-1,6.10601E-2,5.0423876E-3,5.9000093E-2,2.9568499E-2,-1.3486533E-1,2.1288686E-1,4.946555E-2,5.172984E-2,-2.3127432E-1,1.0126418E-1,2.0630946E-2],"split_indices":[5,8,0,2,2,1,0,0,5,3,2,6,5,2,0,0,0,0,0,0,0,0,0,0,0,0,0,0,0,0,0],"split_type":[0,0,0,0,0,0,0,0,0,0,0,0,0,0,0,0,0,0,0,0,0,0,0,0,0,0,0,0,0,0,0],"sum_hessian":[2.4E3,2.188E3,2.12E2,1.767E3,4.21E2,2.2E1,1.9E2,3.1E2,1.457E3,3.3E1,3.88E2,6E0,1.6E1,4E0,1.86E2,2.39E2,7.1E1,4.5E1,1.412E3,3E0,3E1,3.38E2,5E1,4E0,2E0,1E1,6E0,2E0,2E0,1.1E1,1.75E2],"tree_param":{"num_deleted":"0","num_feature":"13","num_nodes":"31","size_leaf_vector":"1"}},{"base_weights":[-1.0503578E-3,-4.3256843E-1,1.8675568E-2,-2.876059E0,-2.2868586E-1,1.0254261E0,4.450193E-3,-4.3189675E-1,9.684446E-2,-5.718824E-1,3.7826055E-1,1.5159795E0,8.150562E-2,-1.30275E-1,7.470323E-2,-3.2183494E-2,-2.0364082E-1,-1.6213286E-1,6.788757E-2,-9.8618366E-2,1.690397E-1,4.6158466E-2,-1.2125931E-1,8.08444E-2,-1.8097756E-2,-5.473398E-2,9.224052E-3],"categories":[],"categories_nodes":[],"categories_segments":[],"categories_sizes":[],"default_left":[0,0,0,0,0,0,0,0,0,0,0,0,0,0,0,0,0,0,0,0,0,0,0,0,0,0,0],"id":34,"left_children":[1,3,5,7,9,11,13,-1,-1,15,17,19,21,23,25,-1,-1,-1,-1,-1,-1,-1,-1,-1,-1,-1,-1],"loss_changes":[2.0445612E1,5.165173E1,3.28917E1,4.8560806E1,2.0629911E1,1.4693832E1,2.1457092E1,0E0,0E0,2.2415274E1,2.2740524E1,1.0831875E1,6.462032E0,3.7127983E1,1.6304813E1,0E0,0E0,0E0,0E0,0E0,0E0,0E0,0E0,0E0,0E0,0E0,0E0],"parents":[2147483647,0,0,1,1,2,2,3,3,4,4,5,5,6,6,9,9,10,10,11,11,12,12,13,13,14,14],"right_children":[2,4,6,8,10,12,14,-1,-1,16,18,20,22,24,26,-1,-1,-1,-1,-1,-1,-1,-1,-1,-1,-1,-1],"split_conditions":[5.58002E-1,6.2E1,7.6E1,7E0,2.01E3,1.4978662E1,1.4E1,-4.3189675E-1,9.684446E-2,3E0,2E0,2E0,1.5E1,2E0,3E0,-3.2183494E-2,-2.0364082E-1,-1.6213286E-1,6.788757E-2,-9.8618366E-2,1.690397E-1,4.6158466E-2,-1.2125931E-1,8.08444E-2,-1.8097756E-2,-5.473398E-2,9.224052E-3],"split_indices":[1,2,2,10,11,0,4,0,0,3,12,10,5,5,5,0,0,0,0,0,0,0,0,0,0,0,0],"split_type":[0,0,0,0,0,0,0,0,0,0,0,0,0,0,0,0,0,0,0,0,0,0,0,0,0,0,0],"sum_hessian":[2.4E3,1.04E2,2.296E3,7E0,9.7E1,3.1E1,2.265E3,5E0,2E0,6.2E1,3.5E1,2E1,1.1E1,7.76E2,1.489E3,5.4E1,8E0,4E0,3.1E1,1E0,1.9E1,9E0,2E0,3.9E1,7.37E2,4E1,1.449E3],"tree_param":{"num_deleted":"0","num_feature":"13","num_nodes":"27","size_leaf_vector":"1"}},{"base_weights":[-1.2170853E-3,2.6701957E-2,-2.911195E-1,-3.359377E-1,5.893534E-2,2.0347333E0,-4.415967E-1,-6.787674E-1,5.9866894E-2,1.2859099E-1,-5.903657E-2,8.528879E-1,2.6667757E0,-2.2909777E0,-3.000218E-1,-3.4446725E-1,-4.2252015E-2,2.251381E-1,-2.1040533E-3,2.168004E-2,-2.1770836E-3,-4.2795956E-2,6.2950486E-3,9.216223E-2,2.5460815E-2,4.110999E-2,2.9302868E-1,-3.1518626E-1,-6.178206E-2,-5.4014403E-2,6.494055E-2],"categories":[],"categories_nodes":[],"categories_segments":[],"categories_sizes":[],"default_left":[0,0,0,0,0,0,0,0,0,0,0,0,0,0,0,0,0,0,0,0,0,0,0,0,0,0,0,0,0,0,0],"id":35,"left_children":[1,3,5,7,9,11,13,15,17,19,21,23,25,27,29,-1,-1,-1,-1,-1,-1,-1,-1,-1,-1,-1,-1,-1,-1,-1,-1],"loss_changes":[1.944098E1,2.5630623E1,7.474597E1,2.4329784E1,1.6549236E1,7.4362297E0,5.1416008E1,6.658511E1,1.4941389E1,1.6796095E1,3.3689808E1,1.2081146E-2,3.550518E0,1.8218262E1,4.275479E1,0E0,0E0,0E0,0E0,0E0,0E0,0E0,0E0,0E0,0E0,0E0,0E0,0E0,0E0,0E0,0E0],"parents":[2147483647,0,0,1,1,2,2,3,3,4,4,5,5,6,6,7,7,8,8,9,9,10,10,11,11,12,12,13,13,14,14],"right_children":[2,4,6,8,10,12,14,16,18,20,22,24,26,28,30,-1,-1,-1,-1,-1,-1,-1,-1,-1,-1,-1,-1,-1,-1,-1,-1],"split_conditions":[5E0,7E0,2E0,4E0,2.01E3,2E0,3E0,2E0,5.3E1,9E0,1.0108671E1,3.856827E0,2E0,2.012E3,2.015E3,-3.4446725E-1,-4.2252015E-2,2.251381E-1,-2.1040533E-3,2.168004E-2,-2.1770836E-3,-4.2795956E-2,6.2950486E-3,9.216223E-2,2.5460815E-2,4.110999E-2,2.9302868E-1,-3.1518626E-1,-6.178206E-2,-5.4014403E-2,6.494055E-2],"split_indices":[12,4,5,6,11,3,5,12,2,10,0,1,10,11,11,0,0,0,0,0,0,0,0,0,0,0,0,0,0,0,0],"split_type":[0,0,0,0,0,0,0,0,0,0,0,0,0,0,0,0,0,0,0,0,0,0,0,0,0,0,0,0,0,0,0],"sum_hessian":[2.4E3,2.19E3,2.1E2,1.78E2,2.012E3,1.2E1,1.98E2,9.5E1,8.3E1,1.265E3,7.47E2,5E0,7E0,1.3E1,1.85E2,7E0,8.8E1,2E0,8.1E1,7.97E2,4.68E2,1.85E2,5.62E2,4E0,1E0,1E0,6E0,8E0,5E0,1.48E2,3.7E1],"tree_param":{"num_deleted":"0","num_feature":"13","num_nodes":"31","size_leaf_vector":"1"}},{"base_weights":[-1.1350843E-3,-2.760455E-2,2.7089682E-1,-4.682425E-2,3.96531E-1,9.5769316E-1,1.8677528E-1,1.4431839E-1,-9.598644E-2,7.069214E-1,1.372231E-1,-3.5633114E-1,1.4424272E0,-9.986435E-1,2.1747217E-1,2.5429893E-2,-7.742097E-3,-1.3457238E-2,3.4288924E-2,6.117828E-3,9.54913E-2,-2.3185192E-2,5.9284925E-2,2.5277138E-2,-1.252725E-1,1.941704E-1,4.5178838E-2,4.925696E-2,-2.1569756E-1,9.232585E-2,1.6811473E-2],"categories":[],"categories_nodes":[],"categories_segments":[],"categories_sizes":[],"default_left":[0,0,0,0,0,0,0,0,0,0,0,0,0,0,0,0,0,0,0,0,0,0,0,0,0,0,0,0,0,0,0],"id":36,"left_children":[1,3,5,7,9,11,13,15,17,19,21,23,25,27,29,-1,-1,-1,-1,-1,-1,-1,-1,-1,-1,-1,-1,-1,-1,-1,-1],"loss_changes":[1.7295973E1,1.7862762E1,1.2127066E1,1.9700548E1,7.5492296E0,1.5163881E1,7.167414E0,1.0481716E1,2.8275827E1,6.827551E0,9.049946E0,4.1386237E0,7.5310097E0,9.69906E0,6.3590803E0,0E0,0E0,0E0,0E0,0E0,0E0,0E0,0E0,0E0,0E0,0E0,0E0,0E0,0E0,0E0,0E0],"parents":[2147483647,0,0,1,1,2,2,3,3,4,4,5,5,6,6,7,7,8,8,9,9,10,10,11,11,12,12,13,13,14,14],"right_children":[2,4,6,8,10,12,14,16,18,20,22,24,26,28,30,-1,-1,-1,-1,-1,-1,-1,-1,-1,-1,-1,-1,-1,-1,-1,-1],"split_conditions":[6.7E1,1.52E2,1.6040134E1,1.993E3,1.7E1,6.636872E0,1.6185755E1,9E0,1.2E1,9E0,3.1E1,6E0,8.3E1,9.8E1,1.6588099E1,2.5429893E-2,-7.742097E-3,-1.3457238E-2,3.4288924E-2,6.117828E-3,9.54913E-2,-2.3185192E-2,5.9284925E-2,2.5277138E-2,-1.252725E-1,1.941704E-1,4.5178838E-2,4.925696E-2,-2.1569756E-1,9.232585E-2,1.6811473E-2],"split_indices":[5,2,0,11,4,1,0,10,10,4,4,6,5,2,0,0,0,0,0,0,0,0,0,0,0,0,0,0,0,0,0],"split_type":[0,0,0,0,0,0,0,0,0,0,0,0,0,0,0,0,0,0,0,0,0,0,0,0,0,0,0,0,0,0,0],"sum_hessian":[2.4E3,2.188E3,2.12E2,2.094E3,9.4E1,2.2E1,1.9E2,4.28E2,1.666E3,4.2E1,5.2E1,6E0,1.6E1,4E0,1.86E2,2.86E2,1.42E2,1.532E3,1.34E2,1.2E1,3E1,2.9E1,2.3E1,4E0,2E0,1E1,6E0,2E0,2E0,1.1E1,1.75E2],"tree_param":{"num_deleted":"0","num_feature":"13","num_nodes":"31","size_leaf_vector":"1"}},{"base_weights":[-9.1426406E-4,-2.629272E-1,2.6298895E-2,-1.1786127E-1,-3.384565E0,-3.207005E-3,3.194465E-1,-1.9347093E-1,1.4666058E0,4.9493313E-1,-5.117912E0,4.4663784E-1,-2.3393702E-2,2.2775549E-1,9.2078453E-1,-1.0946647E-2,-1.6879629E-1,2.1585469E-1,3.429552E-2,-3.916302E-2,1.5773116E-1,-1.1512255E-1,-6.474342E-1,1.5016939E-1,2.8594112E-2,6.220336E-3,-1.6719272E-2,2.7574483E-2,-1.8807279E-1,1.1780651E-1,-1.33161545E-2],"categories":[],"categories_nodes":[],"categories_segments":[],"categories_sizes":[],"default_left":[0,0,0,0,0,0,0,0,0,0,0,0,0,0,0,0,0,0,0,0,0,0,0,0,0,0,0,0,0,0,0],"id":37,"left_children":[1,3,5,7,9,11,13,15,17,19,21,23,25,27,29,-1,-1,-1,-1,-1,-1,-1,-1,-1,-1,-1,-1,-1,-1,-1,-1],"loss_changes":[1.7126526E1,1.0194367E2,1.882252E1,2.6280565E1,6.977817E1,1.7972431E1,1.0762608E1,2.5928371E1,7.0347137E0,4.456111E0,3.0210281E1,1.398185E1,2.332322E1,1.8124744E1,7.2070312E0,0E0,0E0,0E0,0E0,0E0,0E0,0E0,0E0,0E0,0E0,0E0,0E0,0E0,0E0,0E0,0E0],"parents":[2147483647,0,0,1,1,2,2,3,3,4,4,5,5,6,6,7,7,8,8,9,9,10,10,11,11,12,12,13,13,14,14],"right_children":[2,4,6,8,10,12,14,16,18,20,22,24,26,28,30,-1,-1,-1,-1,-1,-1,-1,-1,-1,-1,-1,-1,-1,-1,-1,-1],"split_conditions":[1.194377E0,1.13376E0,1.2E1,1.077252E0,4E0,8.4E1,2.043E3,1.026053E0,8E0,9.9E1,3E0,2.166081E0,2.01E3,2.032E3,4E0,-1.0946647E-2,-1.6879629E-1,2.1585469E-1,3.429552E-2,-3.916302E-2,1.5773116E-1,-1.1512255E-1,-6.474342E-1,1.5016939E-1,2.8594112E-2,6.220336E-3,-1.6719272E-2,2.7574483E-2,-1.8807279E-1,1.1780651E-1,-1.33161545E-2],"split_indices":[1,1,10,1,12,2,11,1,4,2,5,1,11,11,3,0,0,0,0,0,0,0,0,0,0,0,0,0,0,0,0],"split_type":[0,0,0,0,0,0,0,0,0,0,0,0,0,0,0,0,0,0,0,0,0,0,0,0,0,0,0,0,0,0,0],"sum_hessian":[2.4E3,2.25E2,2.175E3,2.16E2,9E0,1.977E3,1.98E2,2.07E2,9E0,3E0,6E0,8.4E1,1.893E3,1.73E2,2.5E1,1.97E2,1E1,5E0,4E0,2E0,1E0,2E0,4E0,1E1,7.4E1,1.187E3,7.06E2,1.7E2,3E0,2E1,5E0],"tree_param":{"num_deleted":"0","num_feature":"13","num_nodes":"31","size_leaf_vector":"1"}},{"base_weights":[-1.0147768E-3,-4.2136397E-2,1.615237E-1,-1.22726925E-1,7.6262474E-2,6.968965E-1,1.1961778E-1,-1.4828505E-1,7.97202E-1,-1.534377E-1,1.7372434E-1,1.1407076E0,2.631235E-1,6.496761E-2,4.887997E-1,-2.7906985E-3,-3.6135368E-2,1.10148214E-1,-2.4099071E-1,-1.0795473E-1,6.2976363E-3,3.6594268E-2,1.6051795E-3,6.0343117E-2,2.0251428E-1,-9.23317E-2,3.803323E-2,9.635931E-2,2.932458E-3,-1.6050386E-1,7.166154E-2],"categories":[],"categories_nodes":[],"categories_segments":[],"categories_sizes":[],"default_left":[0,0,0,0,0,0,0,0,0,0,0,0,0,0,0,0,0,0,0,0,0,0,0,0,0,0,0,0,0,0,0],"id":38,"left_children":[1,3,5,7,9,11,13,15,17,19,21,23,25,27,29,-1,-1,-1,-1,-1,-1,-1,-1,-1,-1,-1,-1,-1,-1,-1,-1],"loss_changes":[1.6054722E1,1.8301043E1,1.0797753E1,2.694501E1,1.742136E1,6.4378166E0,9.067555E0,2.8485718E1,3.2906124E1,4.6566147E1,1.6542053E1,6.8561287E0,2.9933302E0,1.2591457E1,2.8816727E1,0E0,0E0,0E0,0E0,0E0,0E0,0E0,0E0,0E0,0E0,0E0,0E0,0E0,0E0,0E0,0E0],"parents":[2147483647,0,0,1,1,2,2,3,3,4,4,5,5,6,6,7,7,8,8,9,9,10,10,11,11,12,12,13,13,14,14],"right_children":[2,4,6,8,10,12,14,16,18,20,22,24,26,28,30,-1,-1,-1,-1,-1,-1,-1,-1,-1,-1,-1,-1,-1,-1,-1,-1],"split_conditions":[1E0,1.09E2,8.4E1,2.05E3,3E0,3E0,2.015E3,9E0,1E0,1E0,1.6040134E1,2.011E3,2E0,1E0,1E0,-2.7906985E-3,-3.6135368E-2,1.10148214E-1,-2.4099071E-1,-1.0795473E-1,6.2976363E-3,3.6594268E-2,1.6051795E-3,6.0343117E-2,2.0251428E-1,-9.23317E-2,3.803323E-2,9.635931E-2,2.932458E-3,-1.6050386E-1,7.166154E-2],"split_indices":[8,2,2,11,12,3,11,10,7,9,0,11,10,6,12,0,0,0,0,0,0,0,0,0,0,0,0,0,0,0,0],"split_type":[0,0,0,0,0,0,0,0,0,0,0,0,0,0,0,0,0,0,0,0,0,0,0,0,0,0,0,0,0,0,0],"sum_hessian":[2.4E3,1.916E3,4.84E2,1.14E3,7.76E2,3.4E1,4.5E2,1.11E3,3E1,2.31E2,5.45E2,1.6E1,1.8E1,3.93E2,5.7E1,7.1E2,4E2,2.8E1,2E0,4.3E1,1.88E2,2.45E2,3E2,1.1E1,5E0,1E0,1.7E1,1.4E1,3.79E2,5E0,5.2E1],"tree_param":{"num_deleted":"0","num_feature":"13","num_nodes":"31","size_leaf_vector":"1"}},{"base_weights":[-9.193156E-4,2.413896E-2,-2.6111722E-1,-2.9696357E-1,5.268005E-2,1.8545055E0,-3.980116E-1,-5.9071606E-1,1.18249364E-1,4.3197864E-1,3.4910012E-2,7.9277344E-2,2.4189916E0,-2.0855196E0,-2.6885504E-1,-9.723679E-2,5.3777434E-3,2.8488232E-2,-2.910706E-1,-6.0932405E-2,5.999909E-2,-5.0851176E-3,1.1774472E-2,4.041419E-2,2.6490924E-1,-2.8507856E-1,-5.90034E-2,-4.779047E-2,5.5791486E-2],"categories":[],"categories_nodes":[],"categories_segments":[],"categories_sizes":[],"default_left":[0,0,0,0,0,0,0,0,0,0,0,0,0,0,0,0,0,0,0,0,0,0,0,0,0,0,0,0,0],"id":39,"left_children":[1,3,5,7,9,11,13,15,17,19,21,-1,23,25,27,-1,-1,-1,-1,-1,-1,-1,-1,-1,-1,-1,-1,-1,-1],"loss_changes":[1.566109E1,2.009532E1,6.1847263E1,2.1902449E1,1.3552841E1,5.8736153E0,4.2811897E1,2.5879368E1,3.8683495E1,1.6111237E1,1.3674087E1,0E0,2.6383438E0,1.434016E1,3.2414116E1,0E0,0E0,0E0,0E0,0E0,0E0,0E0,0E0,0E0,0E0,0E0,0E0,0E0,0E0],"parents":[2147483647,0,0,1,1,2,2,3,3,4,4,5,5,6,6,7,7,8,8,9,9,10,10,12,12,13,13,14,14],"right_children":[2,4,6,8,10,12,14,16,18,20,22,-1,24,26,28,-1,-1,-1,-1,-1,-1,-1,-1,-1,-1,-1,-1,-1,-1],"split_conditions":[5E0,7E0,2E0,1.01E2,8.4E1,2E0,3E0,6E0,2E1,4E0,1.6108046E1,7.9277344E-2,2E0,2.012E3,2.015E3,-9.723679E-2,5.3777434E-3,2.8488232E-2,-2.910706E-1,-6.0932405E-2,5.999909E-2,-5.0851176E-3,1.1774472E-2,4.041419E-2,2.6490924E-1,-2.8507856E-1,-5.90034E-2,-4.779047E-2,5.5791486E-2],"split_indices":[12,4,5,2,2,3,5,5,5,5,0,0,10,11,11,0,0,0,0,0,0,0,0,0,0,0,0,0,0],"split_type":[0,0,0,0,0,0,0,0,0,0,0,0,0,0,0,0,0,0,0,0,0,0,0,0,0,0,0,0,0],"sum_hessian":[2.4E3,2.19E3,2.1E2,1.78E2,2.012E3,1.2E1,1.98E2,1.04E2,7.4E1,8.9E1,1.923E3,5E0,7E0,1.3E1,1.85E2,6.5E1,3.9E1,7.1E1,3E0,1.2E1,7.7E1,9.45E2,9.78E2,1E0,6E0,8E0,5E0,1.48E2,3.7E1],"tree_param":{"num_deleted":"0","num_feature":"13","num_nodes":"29","size_leaf_vector":"1"}},{"base_weights":[-9.5229683E-4,-2.3748733E-2,2.3333105E-1,-4.0681913E-2,3.499224E-1,9.310914E-1,1.6019425E-1,-2.1990335E-2,-4.568444E-1,1.5349181E-1,7.5050515E-1,-3.3010626E-1,1.3734977E0,-4.501382E-1,2.1016532E-1,-5.1233834E-3,2.3240717E-2,-2.3466435E-1,-1.6527794E-3,5.1119436E-2,-1.3101804E-2,1.1065584E-1,2.9694457E-2,-1.1416985E-1,3.611145E-2,1.9610903E-1,4.2180773E-2,-1.2576254E-1,-4.217694E-3,6.4600974E-2,1.5164721E-2],"categories":[],"categories_nodes":[],"categories_segments":[],"categories_sizes":[],"default_left":[0,0,0,0,0,0,0,0,0,0,0,0,0,0,0,0,0,0,0,0,0,0,0,0,0,0,0,0,0,0,0],"id":40,"left_children":[1,3,5,7,9,11,13,15,17,19,21,23,25,27,29,-1,-1,-1,-1,-1,-1,-1,-1,-1,-1,-1,-1,-1,-1,-1,-1],"loss_changes":[1.2828864E1,1.3865001E1,1.0720651E1,1.62864E1,7.3600426E0,1.1612633E1,6.0114036E0,1.4935489E1,7.4851105E1,6.6820188E0,4.677656E0,3.7782204E0,7.5608883E0,4.8883095E0,4.4928956E0,0E0,0E0,0E0,0E0,0E0,0E0,0E0,0E0,0E0,0E0,0E0,0E0,0E0,0E0,0E0,0E0],"parents":[2147483647,0,0,1,1,2,2,3,3,4,4,5,5,6,6,7,7,8,8,9,9,10,10,11,11,12,12,13,13,14,14],"right_children":[2,4,6,8,10,12,14,16,18,20,22,24,26,28,30,-1,-1,-1,-1,-1,-1,-1,-1,-1,-1,-1,-1,-1,-1,-1,-1],"split_conditions":[6.7E1,1.52E2,1.5894952E1,1.37E2,2.013E3,6.636872E0,3E0,1.24E2,1.0108671E1,4.556123E0,1.6185755E1,3E0,7.9E1,1.4E1,9.6E1,-5.1233834E-3,2.3240717E-2,-2.3466435E-1,-1.6527794E-3,5.1119436E-2,-1.3101804E-2,1.1065584E-1,2.9694457E-2,-1.1416985E-1,3.611145E-2,1.9610903E-1,4.2180773E-2,-1.2576254E-1,-4.217694E-3,6.4600974E-2,1.5164721E-2],"split_indices":[5,2,0,2,11,1,6,2,0,1,0,3,5,4,2,0,0,0,0,0,0,0,0,0,0,0,0,0,0,0,0],"split_type":[0,0,0,0,0,0,0,0,0,0,0,0,0,0,0,0,0,0,0,0,0,0,0,0,0,0,0,0,0,0,0],"sum_hessian":[2.4E3,2.188E3,2.12E2,2.094E3,9.4E1,1.9E1,1.93E2,2.005E3,8.9E1,6.4E1,3E1,5E0,1.4E1,1.4E1,1.79E2,1.799E3,2.06E2,1.6E1,7.3E1,2.8E1,3.6E1,1.6E1,1.4E1,2E0,3E0,8E0,6E0,4E0,1E1,2E1,1.59E2],"tree_param":{"num_deleted":"0","num_feature":"13","num_nodes":"31","size_leaf_vector":"1"}},{"base_weights":[-8.280848E-4,2.1836698E-2,-2.3617269E-1,9.027354E-2,-9.359337E-2,1.6990054E0,-3.6140457E-1,-1.8413559E-1,1.5436898E-1,-2.6443785E-1,1.6010179E-1,7.2625116E-2,2.2161953E0,-1.8516276E0,-2.2099365E-1,-6.10426E-3,-3.2676652E-1,3.4050953E-2,9.280316E-3,-5.8537085E-2,-1.3732048E-3,6.407641E-2,9.325147E-3,3.8649656E-2,2.4223672E-1,-3.8505533E-1,-6.978624E-2,-1.5443951E-1,-1.0222433E-2],"categories":[],"categories_nodes":[],"categories_segments":[],"categories_sizes":[],"default_left":[0,0,0,0,0,0,0,0,0,0,0,0,0,0,0,0,0,0,0,0,0,0,0,0,0,0,0,0,0],"id":41,"left_children":[1,3,5,7,9,11,13,15,17,19,21,-1,23,25,27,-1,-1,-1,-1,-1,-1,-1,-1,-1,-1,-1,-1,-1,-1],"loss_changes":[1.2812174E1,1.7316624E1,5.174903E1,2.4230024E1,3.5409748E1,4.930767E0,4.1230274E1,9.886591E1,1.2757645E1,3.925632E1,1.0511816E1,0E0,2.081623E0,3.6519787E1,2.8605968E1,0E0,0E0,0E0,0E0,0E0,0E0,0E0,0E0,0E0,0E0,0E0,0E0,0E0,0E0],"parents":[2147483647,0,0,1,1,2,2,3,3,4,4,5,5,6,6,7,7,8,8,9,9,10,10,12,12,13,13,14,14],"right_children":[2,4,6,8,10,12,14,16,18,20,22,-1,24,26,28,-1,-1,-1,-1,-1,-1,-1,-1,-1,-1,-1,-1,-1,-1],"split_conditions":[5E0,9E0,2E0,1E0,8.461631E0,2E0,8.67549E-1,2.024E3,1.3071073E1,1.01E2,9.292099E0,7.2625116E-2,2E0,6E0,1E0,-6.10426E-3,-3.2676652E-1,3.4050953E-2,9.280316E-3,-5.8537085E-2,-1.3732048E-3,6.407641E-2,9.325147E-3,3.8649656E-2,2.4223672E-1,-3.8505533E-1,-6.978624E-2,-1.5443951E-1,-1.0222433E-2],"split_indices":[12,10,5,9,1,3,1,11,0,2,1,0,10,12,6,0,0,0,0,0,0,0,0,0,0,0,0,0,0],"split_type":[0,0,0,0,0,0,0,0,0,0,0,0,0,0,0,0,0,0,0,0,0,0,0,0,0,0,0,0,0],"sum_hessian":[2.4E3,2.19E3,2.1E2,1.375E3,8.15E2,1.2E1,1.98E2,2.6E2,1.115E3,4.87E2,3.28E2,5E0,7E0,1.6E1,1.82E2,2.51E2,9E0,2.76E2,8.39E2,2.13E2,2.74E2,3.9E1,2.89E2,1E0,6E0,5E0,1.1E1,1.4E1,1.68E2],"tree_param":{"num_deleted":"0","num_feature":"13","num_nodes":"29","size_leaf_vector":"1"}},{"base_weights":[-9.71244E-4,-3.6072902E-2,1.3777278E-1,6.1606354E-1,-4.747048E-2,5.963408E-1,9.066772E-2,1.4223588E0,3.011547E-1,-2.3042569E-1,-9.772877E-3,-4.894073E-1,1.05272E0,-2.2997441E0,1.3452171E-1,1.7249028E-1,2.4230322E-2,-1.1831672E-2,7.654419E-2,-4.0734835E-2,2.9236436E-2,5.126589E-2,-2.5587287E-3,6.3525744E-2,-1.1848052E-1,2.1346605E-1,6.0312893E-2,-1.2317144E-1,-4.8879766E-1,3.684694E-2,2.1864746E-3],"categories":[],"categories_nodes":[],"categories_segments":[],"categories_sizes":[],"default_left":[0,0,0,0,0,0,0,0,0,0,0,0,0,0,0,0,0,0,0,0,0,0,0,0,0,0,0,0,0,0,0],"id":42,"left_children":[1,3,5,7,9,11,13,15,17,19,21,23,25,27,29,-1,-1,-1,-1,-1,-1,-1,-1,-1,-1,-1,-1,-1,-1,-1,-1],"loss_changes":[1.169819E1,1.4277872E1,1.0422354E1,7.9506617E0,1.2998542E1,2.2813284E1,4.653899E1,2.7952175E0,4.9594436E0,2.9901966E1,1.2934808E1,1.1701908E1,1.4278305E1,1.6093884E1,1.1430376E1,0E0,0E0,0E0,0E0,0E0,0E0,0E0,0E0,0E0,0E0,0E0,0E0,0E0,0E0,0E0,0E0],"parents":[2147483647,0,0,1,1,2,2,3,3,4,4,5,5,6,6,7,7,8,8,9,9,10,10,11,11,12,12,13,13,14,14],"right_children":[2,4,6,8,10,12,14,16,18,20,22,24,26,28,30,-1,-1,-1,-1,-1,-1,-1,-1,-1,-1,-1,-1,-1,-1,-1,-1],"split_conditions":[1E0,1.98E3,2.584025E0,4E0,9.1E1,2.005E3,2.958988E0,3.967229E0,1.9E1,1.6040134E1,2E0,1.988E3,1E0,2.3E1,9.6E1,1.7249028E-1,2.4230322E-2,-1.1831672E-2,7.654419E-2,-4.0734835E-2,2.9236436E-2,5.126589E-2,-2.5587287E-3,6.3525744E-2,-1.1848052E-1,2.1346605E-1,6.0312893E-2,-1.2317144E-1,-4.8879766E-1,3.684694E-2,2.1864746E-3],"split_indices":[8,11,1,6,2,11,1,1,4,0,5,11,6,5,2,0,0,0,0,0,0,0,0,0,0,0,0,0,0,0,0],"split_type":[0,0,0,0,0,0,0,0,0,0,0,0,0,0,0,0,0,0,0,0,0,0,0,0,0,0,0,0,0,0,0],"sum_hessian":[2.4E3,1.916E3,4.84E2,3.2E1,1.884E3,4.4E1,4.4E2,8E0,2.4E1,3.21E2,1.563E3,1.3E1,3.1E1,7E0,4.33E2,6E0,2E0,1.3E1,1.1E1,2.4E2,8.1E1,4.5E1,1.518E3,5E0,8E0,8E0,2.3E1,6E0,1E0,1.4E2,2.93E2],"tree_param":{"num_deleted":"0","num_feature":"13","num_nodes":"31","size_leaf_vector":"1"}},{"base_weights":[-8.967738E-4,1.9309463E-2,-2.1071178E-1,-2.4825561E-1,4.309229E-2,1.5188388E0,-3.2263866E-1,-5.46418E-1,9.5456876E-2,3.914991E-1,2.677228E-2,6.419759E-2,1.9866312E0,-1.6699151E0,-1.9571877E-1,-3.0344102E-1,-3.1663876E-2,-8.372886E-2,2.6254345E-2,-4.9663305E-2,5.3450193E-2,-3.9110374E-2,4.066468E-3,3.415389E-2,2.172853E-1,-3.4891328E-1,-6.2114663E-2,-1.3802707E-1,-8.942293E-3],"categories":[],"categories_nodes":[],"categories_segments":[],"categories_sizes":[],"default_left":[0,0,0,0,0,0,0,0,0,0,0,0,0,0,0,0,0,0,0,0,0,0,0,0,0,0,0,0,0],"id":43,"left_children":[1,3,5,7,9,11,13,15,17,19,21,-1,23,25,27,-1,-1,-1,-1,-1,-1,-1,-1,-1,-1,-1,-1,-1,-1],"loss_changes":[1.018328E1,1.3953027E1,4.1336086E1,1.8396461E1,1.1435446E1,4.0570965E0,3.37014E1,5.3921326E1,1.3311161E1,1.1695937E1,1.1185301E1,0E0,1.7087059E0,3.0267689E1,2.2918642E1,0E0,0E0,0E0,0E0,0E0,0E0,0E0,0E0,0E0,0E0,0E0,0E0,0E0,0E0],"parents":[2147483647,0,0,1,1,2,2,3,3,4,4,5,5,6,6,7,7,8,8,9,9,10,10,12,12,13,13,14,14],"right_children":[2,4,6,8,10,12,14,16,18,20,22,-1,24,26,28,-1,-1,-1,-1,-1,-1,-1,-1,-1,-1,-1,-1,-1,-1],"split_conditions":[5E0,7E0,2E0,4E0,8.4E1,2E0,8.67549E-1,2E0,1.369216E0,4E0,8.7E1,6.419759E-2,2E0,6E0,1E0,-3.0344102E-1,-3.1663876E-2,-8.372886E-2,2.6254345E-2,-4.9663305E-2,5.3450193E-2,-3.9110374E-2,4.066468E-3,3.415389E-2,2.172853E-1,-3.4891328E-1,-6.2114663E-2,-1.3802707E-1,-8.942293E-3],"split_indices":[12,4,5,6,2,3,1,12,1,5,2,0,10,12,6,0,0,0,0,0,0,0,0,0,0,0,0,0,0],"split_type":[0,0,0,0,0,0,0,0,0,0,0,0,0,0,0,0,0,0,0,0,0,0,0,0,0,0,0,0,0],"sum_hessian":[2.4E3,2.19E3,2.1E2,1.78E2,2.012E3,1.2E1,1.98E2,9.5E1,8.3E1,8.9E1,1.923E3,5E0,7E0,1.6E1,1.82E2,7E0,8.8E1,1.2E1,7.1E1,1.2E1,7.7E1,6.1E1,1.862E3,1E0,6E0,5E0,1.1E1,1.4E1,1.68E2],"tree_param":{"num_deleted":"0","num_feature":"13","num_nodes":"29","size_leaf_vector":"1"}},{"base_weights":[-1.0845845E-3,-2.1447135E-2,2.071133E-1,5.669516E-1,-3.6036875E-2,-5.4511964E-1,3.140451E-1,1.3845133E0,4.124419E-1,2.4872977E-2,-1.62093E-1,-2.3388562E0,6.475993E-1,1.4048482E0,2.044073E-1,1.5755543E-1,5.4092694E-2,-4.801899E-2,5.0888754E-2,6.3712085E-3,-4.965966E-2,6.8959795E-2,-2.0015692E-2,-9.501945E-2,-5.725223E-1,9.2199385E-2,-4.7468163E-2,2.235771E-1,5.996253E-2,-1.18497945E-1,2.5310142E-2],"categories":[],"categories_nodes":[],"categories_segments":[],"categories_sizes":[],"default_left":[0,0,0,0,0,0,0,0,0,0,0,0,0,0,0,0,0,0,0,0,0,0,0,0,0,0,0,0,0,0,0],"id":44,"left_children":[1,3,5,7,9,11,13,15,17,19,21,23,25,27,29,-1,-1,-1,-1,-1,-1,-1,-1,-1,-1,-1,-1,-1,-1,-1,-1],"loss_changes":[1.0183337E1,1.8803501E1,1.7384842E1,6.123991E0,1.6404367E1,5.927908E1,2.2196367E1,4.370165E-1,4.2045245E0,2.9216806E1,2.2701435E1,4.6287617E1,5.6727657E0,1.0033699E1,1.1936567E1,0E0,0E0,0E0,0E0,0E0,0E0,0E0,0E0,0E0,0E0,0E0,0E0,0E0,0E0,0E0,0E0],"parents":[2147483647,0,0,1,1,2,2,3,3,4,4,5,5,6,6,7,7,8,8,9,9,10,10,11,11,12,12,13,13,14,14],"right_children":[2,4,6,8,10,12,14,16,18,20,22,24,26,28,30,-1,-1,-1,-1,-1,-1,-1,-1,-1,-1,-1,-1,-1,-1,-1,-1],"split_conditions":[1.2E1,1.981E3,1.914881E0,3E0,9E0,1.7917595E0,3.507084E0,3.967229E0,4E0,5E0,2E0,3E0,1.26E2,1.2899222E1,1.979E3,1.5755543E-1,5.4092694E-2,-4.801899E-2,5.0888754E-2,6.3712085E-3,-4.965966E-2,6.8959795E-2,-2.0015692E-2,-9.501945E-2,-5.725223E-1,9.2199385E-2,-4.7468163E-2,2.235771E-1,5.996253E-2,-1.18497945E-1,2.5310142E-2],"split_indices":[10,11,1,6,10,0,1,1,10,12,5,3,2,0,11,0,0,0,0,0,0,0,0,0,0,0,0,0,0,0,0],"split_type":[0,0,0,0,0,0,0,0,0,0,0,0,0,0,0,0,0,0,0,0,0,0,0,0,0,0,0,0,0,0,0],"sum_hessian":[2.4E3,2.187E3,2.13E2,5.2E1,2.135E3,2.6E1,1.87E2,7E0,4.5E1,1.44E3,6.95E2,1E1,1.6E1,1.6E1,1.71E2,5E0,2E0,4E0,4.1E1,1.341E3,9.9E1,2.9E1,6.66E2,8E0,2E0,1.3E1,3E0,7E0,9E0,5E0,1.66E2],"tree_param":{"num_deleted":"0","num_feature":"13","num_nodes":"31","size_leaf_vector":"1"}},{"base_weights":[-1.0644282E-3,-1.4637552E-2,2.9587397E-1,2.2636822E-3,-3.475057E-1,6.0726553E-1,1.1020016E-1,-2.4109531E-2,2.1334861E-1,-2.1132095E0,-2.7879685E-2,-4.060564E-1,7.3467535E-1,-7.691E-1,2.9665378E-1,-3.086162E-2,-3.3441473E-5,-1.9957773E-1,3.0684397E-2,-4.4679046E-1,-1.8132305E-3,3.4417287E-2,-3.6961045E-2,-5.5120207E-2,8.726311E-3,1.4946151E-1,4.9131133E-2,-1.6416986E-1,3.7711494E-2,9.2746206E-2,2.0240754E-2],"categories":[],"categories_nodes":[],"categories_segments":[],"categories_sizes":[],"default_left":[0,0,0,0,0,0,0,0,0,0,0,0,0,0,0,0,0,0,0,0,0,0,0,0,0,0,0,0,0,0,0],"id":45,"left_children":[1,3,5,7,9,11,13,15,17,19,21,23,25,27,29,-1,-1,-1,-1,-1,-1,-1,-1,-1,-1,-1,-1,-1,-1,-1,-1],"loss_changes":[9.681277E0,1.2923439E1,6.003891E0,1.2180147E1,6.2585587E1,5.333501E0,1.1212719E1,1.3156227E1,5.0802345E1,8.3784546E1,1.2205681E1,4.0611553E-1,5.7386494E0,1.2621336E1,3.1415477E0,0E0,0E0,0E0,0E0,0E0,0E0,0E0,0E0,0E0,0E0,0E0,0E0,0E0,0E0,0E0,0E0],"parents":[2147483647,0,0,1,1,2,2,3,3,4,4,5,5,6,6,7,7,8,8,9,9,10,10,11,11,12,12,13,13,14,14],"right_children":[2,4,6,8,10,12,14,16,18,20,22,24,26,28,30,-1,-1,-1,-1,-1,-1,-1,-1,-1,-1,-1,-1,-1,-1,-1,-1],"split_conditions":[1.52E2,1.37E2,4.556123E0,1.24E2,1.0108671E1,3E0,6E0,2E0,1E0,1.698895E0,2.3E1,1.460239E1,1.3071073E1,8.599342E0,5E0,-3.086162E-2,-3.3441473E-5,-1.9957773E-1,3.0684397E-2,-4.4679046E-1,-1.8132305E-3,3.4417287E-2,-3.6961045E-2,-5.5120207E-2,8.726311E-3,1.4946151E-1,4.9131133E-2,-1.6416986E-1,3.7711494E-2,9.2746206E-2,2.0240754E-2],"split_indices":[2,2,1,2,0,5,10,10,6,1,5,0,0,1,6,0,0,0,0,0,0,0,0,0,0,0,0,0,0,0,0],"split_type":[0,0,0,0,0,0,0,0,0,0,0,0,0,0,0,0,0,0,0,0,0,0,0,0,0,0,0,0,0,0,0],"sum_hessian":[2.4E3,2.296E3,1.04E2,2.186E3,1.1E2,3.8E1,6.6E1,1.944E3,2.42E2,1.6E1,9.4E1,4E0,3.4E1,1.1E1,5.5E1,1.49E2,1.795E3,9E0,2.33E2,7E0,9E0,4.5E1,4.9E1,3E0,1E0,7E0,2.7E1,6E0,5E0,6E0,4.9E1],"tree_param":{"num_deleted":"0","num_feature":"13","num_nodes":"31","size_leaf_vector":"1"}},{"base_weights":[-1.1709874E-3,-2.0493427E-2,1.9741115E-1,-5.215763E-2,1.1221464E-1,7.910595E-1,1.24891125E-1,1.08243264E-1,-9.367633E-2,4.864618E-1,5.362365E-2,-3.106248E-1,1.1981612E0,1.8426313E-1,-3.6451375E-1,5.2201163E-2,6.678965E-3,-2.5789205E-2,-2.5516814E-3,2.0125218E-1,2.674641E-2,9.042608E-2,4.4410388E-4,-1.344471E-1,8.576139E-3,-6.645518E-2,1.3561153E-1,-1.2632743E-1,2.0020908E-2,-1.5442939E-1,-8.208963E-3],"categories":[],"categories_nodes":[],"categories_segments":[],"categories_sizes":[],"default_left":[0,0,0,0,0,0,0,0,0,0,0,0,0,0,0,0,0,0,0,0,0,0,0,0,0,0,0,0,0,0,0],"id":46,"left_children":[1,3,5,7,9,11,13,15,17,19,21,23,25,27,29,-1,-1,-1,-1,-1,-1,-1,-1,-1,-1,-1,-1,-1,-1,-1,-1],"loss_changes":[9.216902E0,9.20424E0,9.071151E0,1.1784374E1,9.227323E0,1.0687626E1,5.6170435E0,6.2085347E0,1.5719395E1,1.8511326E1,1.5308163E1,2.98392E0,5.903002E0,4.200002E0,6.870395E0,0E0,0E0,0E0,0E0,0E0,0E0,0E0,0E0,0E0,0E0,0E0,0E0,0E0,0E0,0E0,0E0],"parents":[2147483647,0,0,1,1,2,2,3,3,4,4,5,5,6,6,7,7,8,8,9,9,10,10,11,11,12,12,13,13,14,14],"right_children":[2,4,6,8,10,12,14,16,18,20,22,24,26,28,30,-1,-1,-1,-1,-1,-1,-1,-1,-1,-1,-1,-1,-1,-1,-1,-1],"split_conditions":[6.7E1,1E0,1.6040134E1,1.994E3,2E0,6.636872E0,2.016E3,1.98E3,1.0108671E1,2E0,1.818561E0,8.6E1,4E0,1.6108046E1,1.6860033E1,5.2201163E-2,6.678965E-3,-2.5789205E-2,-2.5516814E-3,2.0125218E-1,2.674641E-2,9.042608E-2,4.4410388E-4,-1.344471E-1,8.576139E-3,-6.645518E-2,1.3561153E-1,-1.2632743E-1,2.0020908E-2,-1.5442939E-1,-8.208963E-3],"split_indices":[5,8,0,11,3,1,11,11,0,6,1,2,4,0,0,0,0,0,0,0,0,0,0,0,0,0,0,0,0,0,0],"split_type":[0,0,0,0,0,0,0,0,0,0,0,0,0,0,0,0,0,0,0,0,0,0,0,0,0,0,0,0,0,0,0],"sum_hessian":[2.4E3,2.188E3,2.12E2,1.767E3,4.21E2,2.2E1,1.9E2,3.63E2,1.404E3,5.6E1,3.65E2,6E0,1.6E1,1.7E2,2E1,3.2E1,3.31E2,4.11E2,9.93E2,6E0,5E1,1.9E1,3.46E2,1E0,5E0,1E0,1.5E1,1E0,1.69E2,3E0,1.7E1],"tree_param":{"num_deleted":"0","num_feature":"13","num_nodes":"31","size_leaf_vector":"1"}},{"base_weights":[-1.043931E-3,-3.8097E-3,1.3250746E-1,-3.7663024E-2,1.0017073E-1,4.461362E-2,-1.2691064E-1,-6.006861E-1,1.12081766E-1,2.0760822E-1,3.1557668E-3,-1.7137416E-2,4.439544E-2,-1.0729479E-1,3.7594367E-2,6.0207862E-2,9.076757E-3],"categories":[],"categories_nodes":[],"categories_segments":[],"categories_sizes":[],"default_left":[0,0,0,0,0,0,0,0,0,0,0,0,0,0,0,0,0],"id":47,"left_children":[1,3,-1,5,7,9,11,13,15,-1,-1,-1,-1,-1,-1,-1,-1],"loss_changes":[8.811286E0,8.441412E0,0E0,1.3289139E1,4.9842544E0,2.4918917E1,2.2108234E1,5.0156174E0,6.0028057E0,0E0,0E0,0E0,0E0,0E0,0E0,0E0,0E0],"parents":[2147483647,0,0,1,1,3,3,4,4,5,5,6,6,7,7,8,8],"right_children":[2,4,-1,6,8,10,12,14,16,-1,-1,-1,-1,-1,-1,-1,-1],"split_conditions":[2.074E3,1.7216707E1,1.3250746E-1,2.007E3,1E0,5.3E1,1.3751992E1,6.701138E0,1E0,2.0760822E-1,3.1557668E-3,-1.7137416E-2,4.439544E-2,-1.0729479E-1,3.7594367E-2,6.0207862E-2,9.076757E-3],"split_indices":[11,0,0,11,6,2,1,1,9,0,0,0,0,0,0,0,0],"split_type":[0,0,0,0,0,0,0,0,0,0,0,0,0,0,0,0,0],"sum_hessian":[2.4E3,2.396E3,4E0,1.808E3,5.88E2,9.41E2,8.67E2,9E0,5.79E2,5E0,9.36E2,8.05E2,6.2E1,6E0,3E0,2.3E1,5.56E2],"tree_param":{"num_deleted":"0","num_feature":"13","num_nodes":"17","size_leaf_vector":"1"}},{"base_weights":[-7.8556867E-4,-1.5764782E-2,2.3584959E-1,-1.24965515E-2,-2.4693081E0,-2.855148E0,2.999428E-1,1.0583497E-2,-2.650898E-1,-3.7877783E-1,8.381605E-3,-4.7241244E-1,4.4140246E-2,1.7611423E0,1.7495702E-1,8.083734E-3,-1.1052587E-2,1.3833283E-1,-3.8466237E-2,2.1799289E-1,4.832835E-2,-4.0303286E-2,3.5816424E-2],"categories":[],"categories_nodes":[],"categories_segments":[],"categories_sizes":[],"default_left":[0,0,0,0,0,0,0,0,0,0,0,0,0,0,0,0,0,0,0,0,0,0,0],"id":48,"left_children":[1,3,5,7,9,11,13,15,17,-1,-1,-1,-1,19,21,-1,-1,-1,-1,-1,-1,-1,-1],"loss_changes":[8.514322E0,1.8083483E1,2.918639E1,1.3160809E1,1.0416132E1,2.0568766E1,2.5442585E1,1.7612812E1,3.778507E1,0E0,0E0,0E0,0E0,4.83313E0,1.401619E1,0E0,0E0,0E0,0E0,0E0,0E0,0E0,0E0],"parents":[2147483647,0,0,1,1,2,2,3,3,4,4,5,5,6,6,7,7,8,8,13,13,14,14],"right_children":[2,4,6,8,10,12,14,16,18,-1,-1,-1,-1,20,22,-1,-1,-1,-1,-1,-1,-1,-1],"split_conditions":[2.033E3,2.032E3,1E0,5E0,1.7917595E0,1.7917595E0,6E0,9E0,2E0,-3.7877783E-1,8.381605E-3,-4.7241244E-1,4.4140246E-2,1.34588375E1,5E0,8.083734E-3,-1.1052587E-2,1.3833283E-1,-3.8466237E-2,2.1799289E-1,4.832835E-2,-4.0303286E-2,3.5816424E-2],"split_indices":[11,11,6,12,0,0,5,10,5,0,0,0,0,0,10,0,0,0,0,0,0,0,0],"split_type":[0,0,0,0,0,0,0,0,0,0,0,0,0,0,0,0,0,0,0,0,0,0,0],"sum_hessian":[2.4E3,2.258E3,1.42E2,2.256E3,2E0,2E0,1.4E2,2.068E3,1.88E2,1E0,1E0,1E0,1E0,1E1,1.3E2,1.309E3,7.59E2,1.2E1,1.76E2,7E0,3E0,3.1E1,9.9E1],"tree_param":{"num_deleted":"0","num_feature":"13","num_nodes":"23","size_leaf_vector":"1"}},{"base_weights":[-8.9001405E-4,-2.641472E-2,1.3160393E-1,3.1682253E-2,-1.8626745E-1,-4.56846E-1,1.91243E-1,6.388011E-2,-3.9876366E-1,-7.734241E-1,-1.2572625E-1,7.048792E-2,-3.7404137E0,1.4977452E0,1.4878595E-1,-1.6389169E-1,7.2533907E-3,-9.281593E-2,1.1771332E-3,-4.0702146E-2,-3.9896435E-1,-4.695725E-2,3.122077E-3,-2.231307E-1,3.8554627E-2,-4.819648E-1,2.8826093E-2,1.5800862E-1,3.3716727E-2,-1.2840658E-1,2.0012764E-2],"categories":[],"categories_nodes":[],"categories_segments":[],"categories_sizes":[],"default_left":[0,0,0,0,0,0,0,0,0,0,0,0,0,0,0,0,0,0,0,0,0,0,0,0,0,0,0,0,0,0,0],"id":49,"left_children":[1,3,5,7,9,11,13,15,17,19,21,23,25,27,29,-1,-1,-1,-1,-1,-1,-1,-1,-1,-1,-1,-1,-1,-1,-1,-1],"loss_changes":[8.123343E0,1.8709837E1,1.3704076E1,2.0509718E1,1.8991585E1,6.2598976E1,1.9358147E1,2.0395136E1,2.2396471E1,5.7297684E1,2.6349894E1,2.4066666E1,2.312873E1,5.1844215E-1,2.5489775E1,0E0,0E0,0E0,0E0,0E0,0E0,0E0,0E0,0E0,0E0,0E0,0E0,0E0,0E0,0E0,0E0],"parents":[2147483647,0,0,1,1,2,2,3,3,4,4,5,5,6,6,7,7,8,8,9,9,10,10,11,11,12,12,13,13,14,14],"right_children":[2,4,6,8,10,12,14,16,18,20,22,24,26,28,30,-1,-1,-1,-1,-1,-1,-1,-1,-1,-1,-1,-1,-1,-1,-1,-1],"split_conditions":[1.1E1,9E0,1.194377E0,5E0,7E0,1.13376E0,1.494688E0,4E1,5.355452E0,1.6157316E1,2.001E3,1E0,1.54641695E1,4E0,1.914881E0,-1.6389169E-1,7.2533907E-3,-9.281593E-2,1.1771332E-3,-4.0702146E-2,-3.9896435E-1,-4.695725E-2,3.122077E-3,-2.231307E-1,3.8554627E-2,-4.819648E-1,2.8826093E-2,1.5800862E-1,3.3716727E-2,-1.2840658E-1,2.0012764E-2],"split_indices":[10,10,1,12,4,1,1,2,1,0,11,12,0,6,1,0,0,0,0,0,0,0,0,0,0,0,0,0,0,0,0],"split_type":[0,0,0,0,0,0,0,0,0,0,0,0,0,0,0,0,0,0,0,0,0,0,0,0,0,0,0,0,0,0,0],"sum_hessian":[2.4E3,2.013E3,3.87E2,1.477E3,5.36E2,3.5E1,3.52E2,1.375E3,1.02E2,4.9E1,4.87E2,3.1E1,4E0,1E1,3.42E2,6E0,1.369E3,4.4E1,5.8E1,4.5E1,4E0,1.52E2,3.35E2,3E0,2.8E1,3E0,1E0,9E0,1E0,1.1E1,3.31E2],"tree_param":{"num_deleted":"0","num_feature":"13","num_nodes":"31","size_leaf_vector":"1"}}]},"name":"gbtree"},"learner_model_param":{"base_score":"1.5922418E1","boost_from_average":"1","num_class":"0","num_feature":"13","num_target":"1"},"objective":{"name":"reg:squarederror","reg_loss_param":{"scale_pos_weight":"1"}}},"version":[2,1,4]}